%YAML:1.0
---
opencv_ml_knn:
   format: 3
   is_classifier: 1
   default_k: 10
   samples: !!opencv-matrix
      rows: 10
      cols: 962
      dt: f
      data: [ 2.36935580e-38, 0., 9.40395705e-38, 0., 9.18354962e-41,
          2.35106045e-38, 1.83670992e-40, 9.47857115e-38, 1.83670992e-40,
          9.18354962e-41, 2.35113219e-38, 1.40129846e-45, 3.76158192e-37,
          3.58732407e-43, 9.40424179e-38, 5.48860583e-40, 2.35106045e-38,
          2.75506488e-40, 4.20389539e-45, 2.38772290e-38,
          -1.69476580e+38, .Nan, .Nan, 0., 2.75506488e-40,
          9.62436112e-38, -1.70128203e+38, .Nan, -1.06334988e+37,
          9.18326936e-41, 2.15799964e-42, 3.58732407e-43,
          -1.06333372e+37, .Nan, -4.25346392e+37, .Nan, 9.40395593e-38,
          6.01853108e-36, .Nan, 2.35084507e-38, 2.75509291e-40, .Nan,
          3.66981851e-40, 2.35098898e-38, .Nan, 2.35091667e-38,
          1.40129846e-45, -1.70151568e+38, 3.73219434e-37,
          9.18354962e-41, -1.70146376e+38, 2.35088094e-38, 0., 0., .Nan,
          9.40452654e-38, 9.40510275e-38, -4.25352832e+37,
          1.40129846e-45, 0., -1.05512340e+37, 6.06554798e-36, 0., .Nan,
          3.57331108e-43, 0., -1.70141183e+38, 9.33048585e-38,
          2.35098926e-38, -1.70138587e+38, 7.11859620e-43, 0.,
          9.40395481e-38, .Nan, 1.83670992e-40, -1.05922856e+37,
          9.18340949e-41, 0., 0., -4.25346468e+37, 1.07479592e-42,
          -1.70141183e+38, 2.35088094e-38, 1.40129846e-45, 0., .Nan,
          1.51634162e-36, 9.40395481e-38, .Nan, 0., 0., -1.71470411e+38,
          .Nan, 7.17464814e-43, .Nan, 1.07339462e-42, 0., 0., .Nan,
          7.14662217e-43, .Nan, 9.18340949e-41, 0., 0., -1.70138587e+38,
          1.83669591e-40, -1.70141183e+38, 2.35098856e-38, 0., 0., .Nan,
          2.35088094e-38, 0., .Nan, 0., 0., -1.70141183e+38, .Nan,
          1.43492963e-42, .Nan, 3.57331108e-43, 0., 3.76158192e-37, .Nan,
          3.57331108e-43, .Nan, 9.18340949e-41, 0., 0., -1.70130809e+38,
          3.66977647e-40, -1.70141183e+38, 2.35098856e-38, 0., 0., .Nan,
          2.35098856e-38, 1.40129846e-45, .Nan, 0., 0., -1.70141183e+38,
          -1.68804157e+38, 4.20389539e-45, .Nan, 3.57331108e-43, 0., 0.,
          .Nan, 0., .Nan, 2.35095269e-38, 0., 0., .Nan, 9.21900247e-41,
          1.83670992e-40, -1.70135981e+38, 9.21942286e-41,
          3.67341985e-40, -1.69476580e+38, 9.18340949e-41,
          2.35098898e-38, -4.25346468e+37, 2.35127541e-38, 0.,
          -1.70141183e+38, 5.97150951e-36, 3.76169672e-37,
          -1.05922856e+37, 9.18340949e-41, 9.55089160e-38,
          1.07759852e-42, -1.70141173e+38, 7.21668709e-43,
          -4.28676029e+37, 3.76146690e-37, 1.83676598e-40,
          3.58732407e-43, .Nan, 0., 3.76169672e-37, -4.23684933e+37,
          1.84028323e-40, 2.35120422e-38, -4.25346468e+37,
          3.68413978e-40, 2.36935664e-38, .Nan, 2.35098856e-38,
          -1.70141183e+38, .Nan, 9.18312923e-41, 3.58732407e-43,
          1.50463295e-36, .Nan, .Nan, -1.70138577e+38, 9.47742208e-38,
          1.40129846e-45, 1.07619722e-42, .Nan, .Nan, .Nan,
          9.18340949e-41, 2.35098898e-38, 7.17464814e-43, 2.35098898e-38,
          .Nan, .Nan, 3.57331108e-43, 9.40396265e-38, 1.50463277e-36,
          3.58732407e-43, 3.58732407e-43, 0., 2.38772290e-38,
          9.18354962e-41, 3.76158237e-37, 1.83670992e-40, 7.18866112e-43,
          0., 0., 3.58732407e-43, 9.18382988e-41, 2.38793814e-38,
          7.17464814e-43, 0., 0., 2.76226756e-40, 2.35098926e-38, 0., 0.,
          0., 0., 0., 0., 0., 0., 0., 2.36935580e-38, 3.76158192e-37,
          1.50467869e-36, 2.35098870e-38, 9.21942286e-41, 2.36942783e-38,
          1.83670992e-40, 9.32704258e-41, 9.40424179e-38, 1.40129846e-45,
          .Nan, 2.35088094e-38, 0., 1.52814266e-36, -1.70138587e+38,
          2.35098828e-38, 2.35098870e-38, 3.60133705e-43, .Nan,
          2.35098856e-38, 9.40395705e-38, .Nan, -4.25352857e+37,
          2.35091682e-38, 9.18354962e-41, .Nan, .Nan, 9.29375165e-38,
          9.29116934e-41, -1.06338227e+37, -1.70135981e+38,
          9.36722005e-38, 9.40395481e-38, .Nan, -1.70146355e+38,
          2.35095269e-38, 9.18354962e-41, -1.70135951e+38,
          -1.70141183e+38, 2.35095269e-38, 9.18354962e-41,
          2.36928377e-38, -1.70156760e+38, 2.35095269e-38, 0.,
          1.83670992e-40, -1.70141183e+38, 2.35095269e-38, 0., 0.,
          -1.70141305e+38, 2.35095269e-38, 0., 3.76181241e-37,
          -1.70146376e+38, 2.35095269e-38, 1.83670992e-40,
          1.84029725e-40, -1.70141204e+38, 2.35095269e-38,
          2.35098870e-38, 9.18354962e-41, -1.70141183e+38,
          2.35095269e-38, 0., 0., -1.70141183e+38, 2.35095269e-38, 0.,
          0., -1.70141183e+38, 2.35095269e-38, 0., 0., -1.70141183e+38,
          2.35095269e-38, 0., 0., -1.70141183e+38, 2.35095269e-38, 0.,
          0., -1.70141183e+38, 2.35095269e-38, 0., 0., -1.70141183e+38,
          2.35095269e-38, 0., 0., -1.70141183e+38, 2.35095269e-38, 0.,
          0., -1.70141183e+38, 2.35095269e-38, 0., 0., -1.70141183e+38,
          9.36721893e-38, 0., 0., -1.70141183e+38, 2.35091667e-38,
          4.20389539e-45, 0., -1.70141183e+38, 2.35098856e-38, 0., 0.,
          -1.70141183e+38, 9.40323678e-38, 0., 0., -1.70141183e+38,
          2.35098856e-38, 0., 0., 2.75506488e-40, 9.18354906e-38,
          1.07759852e-42, 0., 3.76158192e-37, 2.35098856e-38, 0., 0., 0.,
          3.58732407e-43, 1.40129846e-45, 0., 0., 0., 0., 0., 0., 0., 0.,
          0., 0., 0., 0., 0., 0., 0., 0., 0., 0., 0., 0., 0., 0., 0., 0.,
          0., 0., 0., 0., 0., 0., 0., 0., 0., 0., 0., 0., 0., 0., 0., 0.,
          0., 0., 0., 0., 0., 0., 0., 0., 0., 0., 0., 0., 0., 0., 0., 0.,
          0., 0., 0., 0., 0., 0., 0., 0., 0., 0., 0., 0., 0., 0., 0., 0.,
          0., 0., 0., 0., 0., 0., 0., 0., 0., 0., 0., 0., 0., 0., 0., 0.,
          0., 0., 0., 0., 0., 0., 0., 0., 0., 0., 0., 0., 0., 0., 0., 0.,
          0., 0., 0., 0., 0., 0., 0., 0., 2.36935608e-38, 9.18354962e-41,
          9.47742320e-38, 9.18354962e-41, 7.17464814e-43, 2.36935636e-38,
          1.50463349e-36, 9.40395481e-38, 1.83670992e-40, 9.40395481e-38,
          1.43492963e-42, 3.76169717e-37, 2.35120394e-38, .Nan, .Nan,
          2.35106045e-38, 1.83670992e-40, 1.50472478e-36,
          -4.25333488e+37, .Nan, .Nan, 2.35106017e-38, 9.18354962e-41,
          -1.70141183e+38, -1.06338233e+37, .Nan, -1.70141173e+38,
          2.36935552e-38, 5.60519386e-45, .Nan, .Nan, 9.40395705e-38,
          -4.25333437e+37, 3.57331108e-43, 3.67341985e-40, .Nan,
          1.07619722e-42, 2.40741329e-35, -1.05921233e+37,
          2.76940017e-40, 9.40395481e-38, 7.17464814e-43, 3.58732407e-43,
          2.35113219e-38, .Nan, 2.38772290e-38, 0., 0., 3.67343386e-40,
          -1.07169007e+37, .Nan, 1.83670992e-40, 0., 0., 2.35098898e-38,
          -2.67946857e+36, 3.74688802e-37, 3.58732407e-43, 0., 0.,
          9.18425027e-41, .Nan, 9.18284897e-41, 7.00649232e-45, 0.,
          4.59177481e-40, 3.67341985e-40, .Nan, 7.16063515e-43, 0., 0.,
          9.62436112e-38, -1.70141183e+38, 9.33048585e-38,
          1.83670992e-40, 0., 2.35098870e-38, 3.58732407e-43, .Nan,
          9.55088824e-38, 3.58732407e-43, 0., 1.83670992e-40,
          -1.08012755e+37, .Nan, 2.35106017e-38, 2.80259693e-45, 0.,
          9.47742320e-38, .Nan, 2.35095269e-38, 7.18866112e-43,
          9.18368975e-41, 3.58732407e-43, -1.70146376e+38,
          -1.70138567e+38, 7.16063515e-43, 2.80259693e-45,
          2.35098870e-38, 2.38772318e-38, .Nan, 9.40395425e-38,
          1.40129846e-45, 3.76192675e-37, 1.07619722e-42,
          -1.69476580e+38, .Nan, 3.54528511e-43, 1.43492963e-42,
          1.07899982e-42, 0., .Nan, 1.48700026e-36, 9.47771131e-38,
          3.58732407e-43, 1.57516243e-36, -1.69476569e+38,
          -1.69471367e+38, 7.20267411e-43, 9.40395481e-38, 0.,
          2.35098926e-38, -1.70135981e+38, 9.18340949e-41,
          9.77130015e-38, 3.60133705e-43, 2.35098898e-38, .Nan, .Nan,
          1.83670992e-40, 9.40395481e-38, 2.75506488e-40, 3.65738899e-43,
          .Nan, 9.18340949e-41, 1.50463331e-36, 2.75506488e-40,
          9.18354962e-41, -1.70141183e+38, .Nan, 3.76158237e-37,
          1.83670992e-40, 1.83670992e-40, 2.35106045e-38, .Nan,
          9.18312923e-41, 9.18382988e-41, 3.76158237e-37, 9.40452878e-38,
          7.17464814e-43, .Nan, 9.25515597e-41, 1.83670992e-40,
          3.61535004e-43, 2.35113247e-38, 0., -2.65845520e+36,
          2.35098898e-38, 9.40395593e-38, 1.83670992e-40, 1.40129846e-45,
          .Nan, 2.35084507e-38, 1.07619722e-42, 2.35106101e-38,
          2.35106073e-38, 2.35098954e-38, -1.05090466e+37, .Nan,
          7.16063515e-43, 1.83670992e-40, 9.18354962e-41, 1.43492963e-42,
          .Nan, -2.65845552e+36, .Nan, .Nan, 3.68415379e-40,
          -1.71470411e+38, .Nan, -1.70138567e+38, .Nan, .Nan,
          3.76158192e-37, -1.70151568e+38, .Nan, .Nan, .Nan,
          7.16063515e-43, 2.80259693e-45, 7.17464814e-43, 3.61535004e-43,
          0., 2.35098870e-38, 1.40129846e-45, 1.07759852e-42,
          2.35098926e-38, 7.17464814e-43, 0., 0., 1.43492963e-42,
          1.43773222e-42, 6.11257134e-36, 0., 0., 9.47771019e-38,
          3.58732407e-43, 0., 0., 0., 0., 0., 0., 0., 0., 0., 0., 0., 0.,
          0., 0., 0., 0., 0., 0., 0., 0., 0., 0., 0., 0., 0., 0., 0., 0.,
          0., 0., 0., 0., 0., 0., 2.35113276e-38, 9.18397001e-41,
          9.47742320e-38, 9.40395481e-38, 9.18354962e-41, 2.75865221e-40,
          2.75507890e-40, 2.35106045e-38, 3.67343386e-40, 2.36935692e-38,
          9.21942286e-41, 2.35106045e-38, .Nan, .Nan, -2.64807092e+36,
          -1.70138577e+38, 3.57331108e-43, 9.55089608e-38,
          -4.25339953e+37, -4.25352933e+37, .Nan, .Nan, 2.40616147e-38,
          0., -4.25346468e+37, .Nan, .Nan, .Nan, 1.78805684e-42,
          3.67700717e-40, 2.35098926e-38, 2.36949929e-38,
          -4.25353111e+37, .Nan, 9.21928273e-41, 2.35098954e-38,
          9.18354962e-41, 9.40395481e-38, -1.74128867e+38, .Nan,
          9.40424067e-38, 9.18354962e-41, 9.25529610e-41, 9.18368975e-41,
          .Nan, -1.69473963e+38, 2.35113247e-38, 7.17464814e-43,
          1.40129846e-45, 9.18397001e-41, .Nan, 2.35098856e-38,
          9.40452878e-38, 1.50463277e-36, 1.43492963e-42, 3.76158237e-37,
          -4.25346468e+37, 3.79050966e-37, 0., 1.84033929e-40,
          3.67343386e-40, 9.18354962e-41, .Nan, 9.32690245e-41,
          7.17464814e-43, 1.50463277e-36, 9.18368975e-41,
          -1.06347975e+37, -4.25326972e+37, 2.35098926e-38,
          6.42848473e-40, 2.35098926e-38, 9.18354962e-41, .Nan,
          -4.25352883e+37, 9.40424179e-38, 3.76158282e-37,
          2.76223953e-40, 3.58732407e-43, -1.70138587e+38, .Nan,
          2.76219749e-40, 2.35127569e-38, 4.20389539e-45, 3.79097018e-37,
          .Nan, .Nan, 2.33258545e-38, 9.18382988e-41, 9.40395593e-38, 0.,
          .Nan, -4.23691322e+37, -1.70141173e+38, 2.35106045e-38,
          3.58732407e-43, 0., 0., .Nan, .Nan, 3.67696513e-40,
          3.58732407e-43, 0., 9.40395481e-38, 2.35113247e-38,
          -4.23678418e+37, 9.18326936e-41, 1.40129846e-45, 0.,
          9.47742320e-38, 1.83670992e-40, .Nan, 2.42607312e-35,
          3.58732407e-43, 0., 0., 9.40395705e-38, -1.69484358e+38,
          1.83668190e-40, 0., 0., 0., 2.15239444e-42, .Nan,
          2.35098856e-38, 1.40129846e-45, 0., 9.18354962e-41,
          9.18368975e-41, -1.70156760e+38, 5.99502047e-36, 0., 0., 0.,
          2.35098870e-38, -4.25353060e+37, 2.35088094e-38,
          1.40129846e-45, 0., 2.35098870e-38, 2.35098954e-38,
          -1.69484358e+38, 2.35098842e-38, 0., 7.17464814e-43,
          9.21942286e-41, 9.47742657e-38, -1.69479166e+38,
          2.36935552e-38, 3.76169672e-37, 2.35098898e-38, 9.40395705e-38,
          0., -1.70138587e+38, 1.82952126e-40, 1.40129846e-45,
          1.83672394e-40, 1.07619722e-42, 3.87913136e-37, .Nan,
          5.51011576e-40, 2.36942755e-38, 9.47742096e-38, 9.40424403e-38,
          2.80259693e-45, .Nan, 1.50467851e-36, 1.84747190e-40, .Nan,
          -1.06341434e+37, .Nan, -1.66150954e+35, 1.79366203e-42,
          2.35098870e-38, .Nan, .Nan, .Nan, 3.76152430e-37,
          2.75509291e-40, 9.40424403e-38, -1.05924479e+37, .Nan,
          -4.22029787e+37, 9.40509939e-38, 2.35106045e-38,
          9.18354962e-41, 3.76158192e-37, -1.05922856e+37,
          9.40424067e-38, 0., 0., 1.40129846e-45, 0., 0., 0., 0., 0., 0.,
          0., 0., 0., 0., 0., 0., 0., 0., 0., 0., 0., 0., 0., 0., 0., 0.,
          0., 0., 0., 0., 0., 0., 0., 0., 0., 0., 0., 0., 0., 0., 0., 0.,
          0., 0., 0., 0., 0., 0., 0., 0., 0., 0., 9.18368975e-41,
          2.75506488e-40, 9.21942286e-41, 7.17464814e-43, 0., 0.,
          2.75513495e-40, 9.40452878e-38, 2.35098870e-38, 1.83672394e-40,
          0., 1.83670992e-40, 2.35098898e-38, 3.76181196e-37,
          2.34180487e-38, 0., 0., 7.17464814e-43, 7.17464814e-43,
          -1.69476569e+38, 2.36935496e-38, 1.40129846e-45, 0.,
          2.35098870e-38, 2.36949929e-38, .Nan, 0., 0., 0.,
          1.50463313e-36, -1.70141183e+38, 9.33034236e-38,
          9.18439039e-41, 0., 3.76158192e-37, 1.40129846e-45, .Nan,
          3.55929810e-43, 0., 0., 3.58732407e-43, 2.35098926e-38, .Nan,
          9.47742545e-38, 0., 0., 3.58732407e-43, -1.72799660e+38,
          9.40381075e-38, 9.18354962e-41, 0., 0., 3.67341985e-40,
          -1.68811955e+38, 9.47770907e-38, 3.58732407e-43, 0.,
          9.18354962e-41, 0., .Nan, 9.18397001e-41, 1.43492963e-42, 0.,
          3.76158192e-37, -1.71345836e+35, 2.32343791e-38,
          9.55089160e-38, 0., 0., 2.35098954e-38, .Nan, 1.50467851e-36,
          1.40129846e-45, 0., 0., 3.76158282e-37, -4.22029838e+37,
          9.40395593e-38, 9.21942286e-41, 0., 9.18354962e-41, .Nan,
          2.75505087e-40, 2.35106045e-38, 0., 0., 9.21942286e-41, .Nan,
          2.40616091e-38, .Nan, 3.57331108e-43, 0., -1.70156760e+38,
          2.35091682e-38, 1.83670992e-40, -4.25346468e+37,
          1.40129846e-45, 9.18368975e-41, .Nan, 1.83669591e-40,
          2.35098870e-38, .Nan, 1.07759852e-42, 1.83675196e-40,
          -1.70135981e+38, 1.83670992e-40, -2.65878051e+36,
          2.34176914e-38, 1.83670992e-40, -2.72076355e+36,
          2.35098828e-38, 1.83675196e-40, -1.69476590e+38,
          9.18326936e-41, 4.20389539e-45, .Nan, 1.83310859e-40,
          3.58732407e-43, .Nan, 1.84028323e-40, 3.82047143e-37,
          -6.64583574e+35, -1.70141173e+38, .Nan, -4.25339902e+37,
          1.50456380e-36, 2.35106045e-38, .Nan, .Nan, -1.06333366e+37,
          .Nan, 9.47713510e-38, -4.28676029e+37, .Nan, -1.69476539e+38,
          -1.70138577e+38, .Nan, 9.21928273e-41, 9.40395593e-38,
          -1.71470411e+38, -2.65845583e+36, .Nan, 9.40395481e-38,
          1.40129846e-45, 3.62936302e-43, 9.21942286e-41, 1.84032527e-40,
          2.34180459e-38, 1.83670992e-40, 9.40538974e-38, 3.67341985e-40,
          2.35098870e-38, -1.70141183e+38, 2.38736389e-38,
          2.75506488e-40, 0., 2.38772318e-38, 2.36949957e-38,
          -4.18719825e+37, 6.06536646e-36, 0., 2.80259693e-45,
          2.80259693e-45, 9.18354962e-41, -1.70138587e+38,
          9.40424067e-38, 9.47771131e-38, 3.58732407e-43, 2.38779493e-38,
          4.20389539e-45, -1.70138577e+38, 5.60519386e-45,
          6.01853108e-36, 1.07619722e-42, 2.80259693e-45, 1.84029725e-40,
          1.82952126e-40, 9.40395705e-38, 2.35106101e-38, 3.76158192e-37,
          1.83670992e-40, 2.35098898e-38, 2.75506488e-40, 2.80259693e-45,
          0., 0., 0., 0., 0., 0., 0., 0., 0., 0., 0., 0., 0., 0., 0., 0.,
          0., 0., 0., 0., 0., 0., 0., 0., 0., 0., 0., 0., 0., 0., 0., 0.,
          0., 0., 0., 0., 0., 0., 0., 0., 0., 0., 0., 0., 0., 0., 0., 0.,
          0., 0., 0., 0., 0., 0., 0., 0., 9.18354962e-41, 2.80259693e-45,
          1.40129846e-45, 0., 9.18354962e-41, 7.17464814e-43,
          2.75865221e-40, 3.61535004e-43, 0., 2.35098870e-38,
          7.17464814e-43, -4.25353111e+37, -1.70130789e+38, .Nan, .Nan,
          3.79096928e-37, 2.36935608e-38, .Nan, .Nan, .Nan,
          9.18340949e-41, 9.18354962e-41, .Nan, .Nan, .Nan,
          2.35098856e-38, 0., .Nan, 9.18312923e-41, 0., 0.,
          2.40616175e-38, -1.05922856e+37, 9.18340949e-41, 0., 0.,
          1.83672394e-40, -4.25365939e+37, 2.35095269e-38, 0., 0.,
          3.58732407e-43, 9.18382988e-41, .Nan, 3.58732407e-43,
          3.58732407e-43, 3.58732407e-43, 0., .Nan, 1.07199333e-42,
          2.35106101e-38, 1.40129846e-45, 0., .Nan, 2.38765059e-38,
          2.35098870e-38, 1.83670992e-40, 0., -1.70141183e+38,
          2.35098856e-38, 2.36942783e-38, 9.40395481e-38, 0.,
          1.83670992e-40, .Nan, -4.25352883e+37, 1.83306655e-40,
          3.58732407e-43, 0., .Nan, -1.06334988e+37, -1.70138577e+38,
          3.57331108e-43, 0., .Nan, .Nan, .Nan, 1.50449493e-36, 0.,
          1.83670992e-40, 1.83672394e-40, .Nan, -4.25313991e+37,
          3.54528511e-43, 0., 0., 9.40395481e-38, .Nan, 2.35098828e-38,
          9.18368975e-41, 0., 0., 1.83670992e-40, -4.25352883e+37,
          1.43492963e-42, 0., 0., 1.43492963e-42, .Nan, 9.14753625e-41,
          0., 0., 2.38772290e-38, -4.35322169e+37, 3.76152430e-37, 0.,
          0., 9.62436000e-38, 2.75506488e-40, -2.65845583e+36,
          1.83670992e-40, 0., 2.35098870e-38, 4.59536213e-40,
          -1.70138587e+38, 2.35106017e-38, 0., 0., 9.18354962e-41,
          -1.68817158e+38, 9.07578976e-41, 0., 0., 1.83670992e-40,
          -4.28676079e+37, 2.35098856e-38, 9.40395705e-38,
          3.58732407e-43, 9.40424179e-38, -1.70141183e+38,
          -1.70138577e+38, 3.76192631e-37, 3.76158192e-37,
          2.35113247e-38, 9.18354962e-41, .Nan, 4.20389539e-45,
          2.40616175e-38, 1.83670992e-40, 2.35098898e-38, .Nan,
          3.54528511e-43, 1.83675196e-40, 9.25529610e-41,
          -1.71470432e+38, .Nan, 2.35141890e-38, 2.35098954e-38,
          9.36291582e-41, .Nan, .Nan, 3.54528511e-43, 2.38772374e-38,
          -1.04259698e+37, -1.70141173e+38, -4.25326972e+37,
          2.35106045e-38, 1.40129846e-45, .Nan, -4.23691398e+37,
          2.35098856e-38, 3.67341985e-40, 2.35098870e-38, 9.18354962e-41,
          -1.69476549e+38, 2.35098926e-38, 9.21942286e-41,
          1.83673795e-40, 3.58732407e-43, 0., 0., 0., 0., 0., 0., 0., 0.,
          0., 0., 0., 0., 0., 0., 0., 0., 0., 0., 0., 0., 0., 0., 0., 0.,
          0., 0., 0., 0., 0., 0., 0., 0., 0., 0., 0., 0., 0., 0., 0., 0.,
          0., 0., 0., 0., 0., 0., 0., 0., 0., 0., 0., 0., 0., 0., 0., 0.,
          0., 0., 0., 0., 0., 0., 0., 0., 0., 0., 0., 0., 0., 0., 0., 0.,
          0., 0., 1.83673795e-40, 2.35106045e-38, 0., 0., 0., 0.,
          9.18354962e-41, 9.18411014e-41, 0., 0., 0., 0., 0., .Nan, 0.,
          0., 0., 0., 1.07619722e-42, .Nan, 0., 0., 0., 0.,
          -1.70141183e+38, 9.40395425e-38, 0., 0., 0., 0.,
          -1.68149978e+38, 9.11166300e-41, 0., 0., 0., 0., .Nan,
          2.75502285e-40, 0., 0., 0., 0., -2.65845583e+36,
          9.40424067e-38, 0., 0., 7.17464814e-43, -1.70151588e+38,
          -1.06338233e+37, 2.80259693e-45, 2.80259693e-45,
          9.25529610e-41, 3.76181196e-37, -1.72799660e+38,
          9.40366726e-38, 0., 3.58732407e-43, 1.50463277e-36,
          1.40129846e-45, .Nan, 2.35098856e-38, 2.35098870e-38,
          3.76158192e-37, 7.17464814e-43, 2.76223953e-40,
          -4.25333488e+37, 9.14753625e-41, 1.84388457e-40,
          2.75865221e-40, 9.55089272e-38, 2.35106073e-38, .Nan,
          1.82952126e-40, 1.50463277e-36, 9.18382988e-41, 3.58732407e-43,
          2.36935580e-38, .Nan, .Nan, -4.25333462e+37, 9.40424291e-38,
          2.40609000e-38, 9.21970312e-41, -1.69476559e+38, .Nan, .Nan,
          2.74070158e-40, 2.35113304e-38, -1.70146376e+38, .Nan, .Nan,
          .Nan, 9.36722005e-38, 3.67341985e-40, -1.07999775e+37, .Nan,
          2.36935496e-38, -1.69476569e+38, .Nan, 9.25529610e-41, .Nan,
          .Nan, 1.83675196e-40, -1.70151588e+38, .Nan, 9.40395593e-38,
          -2.64807171e+36, 2.35098856e-38, 9.18382988e-41,
          1.40129846e-45, -4.25352933e+37, 1.84385655e-40, .Nan,
          3.74677278e-37, 1.43492963e-42, 9.40510387e-38, .Nan,
          2.36942727e-38, .Nan, 9.14753625e-41, 9.18368975e-41,
          9.18368975e-41, -2.65841543e+36, 3.57331108e-43, .Nan,
          2.42431333e-38, 9.62436112e-38, 2.35098870e-38, .Nan,
          9.21900247e-41, -1.69476600e+38, 3.66618915e-40,
          3.60133705e-43, 1.84031126e-40, -1.05505856e+37,
          1.84028323e-40, .Nan, 3.79096883e-37, 2.75506488e-40,
          9.18354962e-41, .Nan, 9.21900247e-41, .Nan, 2.36935468e-38,
          9.40395593e-38, 7.17464814e-43, -1.70138597e+38,
          3.54528511e-43, .Nan, 9.14753625e-41, 2.15239444e-42,
          2.75506488e-40, .Nan, 2.50972555e-42, .Nan, 3.76158103e-37,
          9.18354962e-41, 4.20389539e-45, .Nan, 1.50467851e-36,
          -4.41968309e+37, 2.35095241e-38, 3.60133705e-43,
          -4.31999149e+37, -4.25352933e+37, 3.61535004e-43,
          -4.25365939e+37, .Nan, 1.84026922e-40, .Nan, 2.34180459e-38,
          9.40395481e-38, 1.83670992e-40, -4.25339927e+37, .Nan, .Nan,
          2.35098856e-38, 0., 3.58732407e-43, .Nan, -4.25339927e+37,
          -4.25339953e+37, 3.79073880e-37, 9.18354962e-41,
          9.18354962e-41, 0., .Nan, .Nan, 9.21942286e-41, 9.18368975e-41,
          0., 0., 0., 0., 0., 0., 0., 0., 0., 0., 0., 0., 0., 0., 0., 0.,
          0., 0., 0., 0., 0., 0., 0., 0., 0., 0., 0., 0., 0., 0., 0., 0.,
          0., 0., 0., 0., 0., 0., 0., 0., 0., 0., 0., 0., 0., 0., 0., 0.,
          9.18354962e-41, 1.07619722e-42, 2.80259693e-45, 0.,
          9.40395481e-38, 3.76158192e-37, 9.40452878e-38, 2.35098870e-38,
          2.80259693e-45, 0., 9.18354962e-41, 2.80259693e-45,
          8.40779079e-45, -1.70141183e+38, .Nan, .Nan, -4.25352933e+37,
          9.33034236e-38, 1.84388457e-40, .Nan, .Nan, .Nan,
          -4.22029863e+37, 9.40395369e-38, 9.55089160e-38,
          -1.69471347e+38, .Nan, .Nan, .Nan, 3.71744326e-37, 0.,
          -1.08006278e+37, .Nan, .Nan, -1.06338233e+37, 2.35098842e-38,
          2.76225355e-40, 1.50463295e-36, 0., 0., .Nan, 2.35095255e-38,
          2.35098870e-38, 1.83670992e-40, 4.20389539e-45, 0.,
          -4.23691424e+37, 9.47656112e-38, 3.58732407e-43, 0.,
          2.35098870e-38, 9.18354962e-41, -1.70138597e+38,
          9.18340949e-41, 7.17464814e-43, 0., 2.35098870e-38,
          2.38772318e-38, .Nan, 7.16063515e-43, 1.40129846e-45, 0., 0.,
          3.61535004e-43, .Nan, 3.53127213e-43, 4.20389539e-45, 0.,
          9.55089160e-38, -4.25404882e+37, -1.70138577e+38,
          9.40424179e-38, 0., 0., 2.35098870e-38, .Nan, 9.25672991e-38,
          2.75509291e-40, 1.07619722e-42, 0., 3.67341985e-40,
          -4.23691500e+37, 2.40608944e-38, 3.76158192e-37, 0., 0.,
          1.50463277e-36, .Nan, 3.57331108e-43, 2.75506488e-40,
          1.43492963e-42, 0., 9.18354962e-41, -1.70141173e+38,
          7.13260918e-43, 9.25529610e-41, 9.18397001e-41, 1.40129846e-45,
          1.83675196e-40, -1.70138577e+38, 2.80259693e-45, 0.,
          6.01853108e-36, 1.07619722e-42, -1.70141224e+38,
          2.35098772e-38, 0., 0., 1.83670992e-40, 2.35098898e-38,
          -1.70151588e+38, 9.40381075e-38, 0., 0., 1.83670992e-40,
          1.83670992e-40, .Nan, 9.14753625e-41, 2.80259693e-45, 0., 0.,
          9.40424179e-38, -6.59431882e+35, 3.79096883e-37, 0., 0.,
          9.40395481e-38, 3.67341985e-40, .Nan, 1.83666788e-40,
          3.58732407e-43, 0., 3.76158192e-37, 1.40129846e-45,
          -1.68814562e+38, 9.18312923e-41, 3.58732407e-43, 0.,
          9.18354962e-41, 7.17464814e-43, .Nan, 3.57331108e-43,
          2.80259693e-45, 0., 0., 0., .Nan, 2.35106017e-38, 0., 0., 0.,
          0., .Nan, 9.21928273e-41, 0., 0., 0., 0., -1.70138587e+38,
          3.57331108e-43, 2.80259693e-45, 0., 0., 0., -1.05921233e+37,
          1.79226074e-42, 1.07619722e-42, 0., 0., 0., .Nan,
          2.35105961e-38, 3.58732407e-43, 0., 0., 0., .Nan,
          2.36964251e-38, 4.20389539e-45, 0., 0., 0., .Nan,
          3.55929810e-43, 1.40129846e-45, 0., 0., 0., .Nan,
          1.84388457e-40, 0., 0., 0., 0., 0., 0., 0., 0., 0., 0., 0., 0.,
          0., 0., 0., 0., 0., 0., 0., 0., 0., 0., 0., 0., 0., 0., 0., 0.,
          0., 0., 0., 0., 0., 0., 0., 0., 0., 0., 0., 0., 0., 0., 0., 0.,
          0., 0., 0., 0., 0., 0., 0., 1.83670992e-40, 1.84031126e-40,
          1.83670992e-40, 2.80259693e-45, 2.75506488e-40, 2.35106045e-38,
          9.40395481e-38, 0., 1.84029725e-40, 3.58732407e-43,
          2.80259693e-45, 1.84029725e-40, 7.00649232e-45, 2.35106045e-38,
          2.75506488e-40, -1.70138587e+38, 2.35095269e-38,
          2.75507890e-40, 1.83672394e-40, 0., 3.60133705e-43,
          -4.25346468e+37, .Nan, -1.06338208e+37, 2.35127569e-38,
          1.07619722e-42, 1.07619722e-42, .Nan, .Nan, -2.65845567e+36,
          2.35098856e-38, 2.80259693e-45, 9.40395481e-38,
          -1.06347975e+37, -1.69476559e+38, .Nan, -1.05922850e+37,
          3.79096883e-37, 1.40129846e-45, 1.85105922e-40, .Nan, .Nan,
          .Nan, .Nan, 2.36935580e-38, 9.18354962e-41, -1.05929346e+37,
          -1.70138577e+38, 9.18354962e-41, -1.69471387e+38,
          2.35095269e-38, 0., 3.58732407e-43, -1.70133385e+38,
          2.75863820e-40, -1.06344730e+37, -4.25352908e+37,
          9.40424067e-38, 9.18354962e-41, -1.66823326e+38,
          2.35091682e-38, 9.18354962e-41, -1.70138587e+38,
          9.40381075e-38, 0., 9.18354962e-41, -1.68811945e+38,
          9.18312923e-41, -1.67456684e+35, .Nan, 9.40424067e-38,
          9.18354962e-41, -4.23704404e+37, .Nan, 9.40395705e-38,
          -1.06338227e+37, 2.35098856e-38, 1.40129846e-45,
          3.58732407e-43, -4.25346468e+37, .Nan, -1.70135971e+38,
          -1.06338233e+37, 2.36935608e-38, 2.36935580e-38,
          -1.74134060e+38, -4.25352832e+37, -4.25346392e+37, .Nan,
          2.35106017e-38, 0., 3.58732407e-43, .Nan, .Nan,
          -1.70141143e+38, 2.33262118e-38, 9.40395817e-38,
          1.83670992e-40, 2.35106101e-38, .Nan, .Nan, .Nan,
          1.79366203e-42, 2.80259693e-45, 2.80259693e-45,
          -4.23691424e+37, .Nan, .Nan, 2.36935552e-38, 2.36935636e-38,
          0., 9.40395705e-38, -4.25352807e+37, .Nan, -1.69476539e+38,
          2.35106017e-38, 0., 2.35113219e-38, .Nan, .Nan, .Nan,
          -4.25339953e+37, 2.35098926e-38, 2.35098870e-38,
          -1.69476590e+38, .Nan, .Nan, -1.05922850e+37, 3.71750066e-37,
          2.80259693e-45, -1.70141204e+38, .Nan, 9.47742208e-38,
          -4.23697990e+37, -2.65845583e+36, 9.18340949e-41, 0.,
          -1.68811945e+38, 3.76146690e-37, 3.61535004e-43, .Nan, .Nan,
          1.43492963e-42, .Nan, .Nan, 0., 9.40453326e-38, .Nan,
          2.75146355e-40, 9.18354962e-41, .Nan, 2.36928377e-38,
          9.40424179e-38, -1.70141204e+38, -1.70138577e+38,
          1.40129846e-45, .Nan, -1.70141133e+38, 1.07619722e-42,
          4.59178882e-40, -4.23684933e+37, 3.74688802e-37,
          1.83670992e-40, -2.65841527e+36, 3.67340583e-40,
          2.38772374e-38, -1.70146376e+38, -1.70141173e+38,
          3.57331108e-43, .Nan, .Nan, 1.84388457e-40, 2.36935580e-38,
          .Nan, 5.94800034e-36, 0., .Nan, 9.14739612e-41, 1.53989760e-36,
          -6.80190888e+35, .Nan, 1.40129846e-45, -1.07185233e+37, .Nan,
          9.39850880e-41, 1.40129846e-45, .Nan, 9.14753625e-41,
          2.75506488e-40, -1.05090466e+37, -1.06338221e+37,
          1.43072573e-42, .Nan, .Nan, 7.17464814e-43, 2.35098870e-38,
          -1.06338233e+37, -4.25346443e+37, -4.25346443e+37, .Nan,
          9.32690245e-41, 0., -1.71470411e+38, .Nan, .Nan, .Nan,
          2.35098828e-38, 3.58732407e-43, 2.35098898e-38, .Nan, .Nan,
          .Nan, 2.35088094e-38, 2.75506488e-40, 9.40395481e-38,
          6.42848473e-40, .Nan, .Nan, 3.74688802e-37, 2.35113219e-38,
          7.17464814e-43, 2.35106045e-38, 9.47742320e-38, 0., 0.,
          1.40129846e-45, 2.76223953e-40, 9.18354962e-41, 2.35098926e-38,
          0., 0., 2.35098870e-38, 9.18411014e-41, 1.40129846e-45,
          9.40395593e-38, 9.55175256e-38, 0., 0., 0., 2.38772346e-38,
          1.83670992e-40, 2.35098926e-38, 2.75506488e-40, 0.,
          9.18368975e-41, 2.36949929e-38, 3.58732407e-43, 9.18368975e-41,
          9.18368975e-41, 7.20267411e-43, 3.58732407e-43, 1.43492963e-42,
          9.18382988e-41, 9.25529610e-41, 3.60133705e-43,
          -1.70141183e+38, 9.18340949e-41, 2.80259693e-45,
          2.35098898e-38, 7.17464814e-43, 2.35106045e-38, .Nan, .Nan,
          2.40587448e-38, 9.25529610e-41, 1.40129846e-45, 2.36935720e-38,
          .Nan, -1.70130789e+38, -6.64603777e+35, 1.40129846e-45,
          9.40395481e-38, 9.40395481e-38, .Nan, -2.64807076e+36,
          -2.65837470e+36, 2.42416983e-38, 1.07759852e-42,
          2.38779465e-38, .Nan, 9.18340949e-41, -1.71470472e+38, .Nan,
          0., 7.17464814e-43, .Nan, 2.35105989e-38, 1.83672394e-40, .Nan,
          3.67339182e-40, 9.40395481e-38, .Nan, 3.57331108e-43, 0.,
          -1.70141183e+38, 9.40395369e-38, 0., .Nan, 2.74070158e-40, 0.,
          9.40395481e-38, .Nan, 9.18354962e-41, -1.09661322e+37,
          9.36721837e-38, 0., 0., .Nan, 2.44260868e-38, -4.25378920e+37,
          .Nan, 0., 0., -1.70141183e+38, 2.35084507e-38, 9.40395481e-38,
          -1.70138577e+38, 3.57331108e-43, 0., 2.38772290e-38, .Nan,
          2.80259693e-45, .Nan, 2.74428890e-40, 0., 0., .Nan,
          3.54528511e-43, -1.70146376e+38, 2.35095269e-38, 0., 0., .Nan,
          9.47741984e-38, 1.83670992e-40, -1.70141163e+38, 0., 0.,
          -1.69476569e+38, 9.36721893e-38, 0., .Nan, 2.75144953e-40,
          9.40395705e-38, -1.70141183e+38, 2.34180473e-38,
          2.35098954e-38, -1.70141204e+38, 2.35098814e-38,
          4.59181685e-40, -1.72799639e+38, .Nan, 1.40129846e-45,
          2.75865221e-40, -1.68147331e+38, 2.35091682e-38, .Nan, .Nan,
          3.76169627e-37, 0., .Nan, .Nan, .Nan, -1.70141163e+38,
          1.53971375e-36, 2.75506488e-40, 3.67343386e-40,
          -4.25352857e+37, -1.69476549e+38, -1.70141173e+38,
          9.14753625e-41, 3.58732407e-43, 9.18382988e-41,
          -4.28676181e+37, .Nan, -1.70138577e+38, 9.40352377e-38,
          4.20389539e-45, 9.40538974e-38, 1.40129846e-45, 2.35098870e-38,
          -4.25346468e+37, 3.76152430e-37, 9.40395481e-38,
          2.35106045e-38, 2.75506488e-40, 2.36935580e-38,
          -2.64811196e+36, -1.70141173e+38, 9.25529610e-41,
          9.18354962e-41, 1.40129846e-45, 2.35098954e-38,
          -1.70146396e+38, .Nan, 3.76158282e-37, 0., 2.75513495e-40,
          7.17464814e-43, -1.70141183e+38, .Nan, 0., 2.75865221e-40,
          9.18382988e-41, 9.47771019e-38, 3.76158372e-37, .Nan,
          9.29116934e-41, 3.76158461e-37, 7.17464814e-43, 7.17464814e-43,
          4.59177481e-40, -1.05922850e+37, 2.35105961e-38,
          3.79096928e-37, 0., 9.40424179e-38, 9.21956299e-41, .Nan,
          9.29102921e-41, 2.75506488e-40, 0., 1.50463313e-36,
          9.40395481e-38, -1.06338233e+37, 3.57331108e-43,
          9.21942286e-41, 1.84029725e-40, 9.29116934e-41, 2.36935580e-38,
          -1.68147321e+38, 2.35106017e-38, 0., 3.58732407e-43,
          3.58732407e-43, 2.35098926e-38, .Nan, 1.07339462e-42,
          2.35098870e-38, 3.58732407e-43, 9.18354962e-41, 7.17464814e-43,
          -1.70138597e+38, 3.57331108e-43, 4.20389539e-45, 0., 0.,
          3.62936302e-43, 2.36942755e-38, 2.35098898e-38, 1.83670992e-40,
          0., 0., 7.17464814e-43, 5.60519386e-45, 1.40129846e-45,
          3.67343386e-40, 0., 0., 0., 2.38772318e-38, 2.38772318e-38,
          7.17464814e-43, 4.20389539e-45, 0., 0., 0., 0., 0., 0., 0., 0.,
          0., 0., 0., 0., 0., 0., 0., 0., 0., 0., 0., 0., 2.25015884e-34,
          4.59093403e-41, 0., 0., 0., 0., 0., 3.58732407e-43,
          9.07538082e+13, 7.32879097e-43, 3.67126271e+34, 7.32879097e-43,
          0., 0., 2.17387476e-34, 4.59093403e-41, 2.38220739e-44,
          1.02856863e-38, 1.01020461e-38, 1.08366824e-38, 9.55100791e-39,
          1.04693825e-38, 6.33680618e-39, 1.06530857e-38, 1.04693881e-38,
          1.54142831e-43, 0., 0., 2.60828054e-34, 4.59093403e-41, 0., 0.,
          0., 0., 0., 3.58732407e-43, 0., 0., 3.55859234e+34,
          7.32879097e-43, 9.55090668e+14, 7.32879097e-43, 0., 0.,
          2.69382530e-34, 4.59093403e-41, 0., 0., 0., 0., 0.,
          3.58732407e-43, 0., 0., 3.71008451e+34, 7.32879097e-43, 0., 0.,
          2.17387476e-34, 4.59093403e-41, 2.38220739e-44, 1.02856863e-38,
          1.01020461e-38, 1.08366824e-38, 9.55100791e-39, 1.04693825e-38,
          6.33680618e-39, 1.06530857e-38, 1.04693881e-38, 1.54142831e-43,
          0., 0., 2.30388260e-34, 4.59093403e-41, 0., 0., 0., 0., 0.,
          3.58732407e-43, 0., 0., 3.72219057e+34, 7.32879097e-43,
          9.55078857e+14, 7.32879097e-43, 0., 0., 1.40129846e-45, 0., 0.,
          0., 2.30388260e-34, 4.59093403e-41, 0., 0., 0., 0., 0.,
          3.58732407e-43, 0., 0., 3.72252333e+34, 7.32879097e-43,
          9.49760077e+14, 7.32879097e-43, 0., 0., 1.40129846e-45, 0., 0.,
          0., 2.17387476e-34, 4.59093403e-41, 2.38220739e-44,
          1.02856863e-38, 1.01020461e-38, 1.08366824e-38, 9.55100791e-39,
          1.04693825e-38, 6.33680618e-39, 1.06530857e-38, 1.04693881e-38,
          1.54142831e-43, 0., 0., 0., 0., 0., 0., 0., 0., 0., 0., 0., 0.,
          0., 0., 0., 0., 0., 0., 0., 0., 0., 0., 0., 0., 0., 0., 0., 0.,
          0., 0., 0., 0., 0., 0., 0., 0., 0., 0., 0., 0., 0., 0., 0., 0.,
          0., 0., 0., 0., 0., 0., 0., 0., 0., 0., 0., 0., 0., 0., 0., 0.,
          0., 0., 0., 0., 0., 0., 0., 0., 0., 0., 0., 0., 0., 0., 0., 0.,
          0., 0., 0., 0., 0., 0., 0., 0., 0., 0., 0., 0., 0., 0., 0., 0.,
          0., 0., 0., 0., 0., 0., 0., 0., 0., 0., 0., 0., 0., 0., 0., 0.,
          0., 0., 0., 0., 0., 0., 0., 0., 0., 0., 0., 0., 0., 0., 0., 0.,
          0., 0., 0., 0., 0., 0., 0., 0., 0., 0., 0., 0., 0., 0., 0., 0.,
          0., 0., 0., 0., 0., 0., 0., 0., 0., 0., 0., 0., 0., 0., 0., 0.,
          0., 0., 0., 0., 0., 0., 0., 0., 0., 0., 0., 0., 0., 0., 0., 0.,
          0., 0., 0., 0., 0., 0., 0., 0., 0., 0., 0., 0., 0., 0., 0., 0.,
          0., 0., 0., 0., 0., 0., 0., 0., 0., 0., 0., 0., 0., 0., 0., 0.,
          0., 0., 0., 0., 0., 0., 0., 0., 0., 0., 0., 0., 0., 0., 0., 0.,
          0., 0., 0., 0., 0., 0., 0., 0., 0., 0., 0., 0., 0., 0., 0., 0.,
          0., 0., 0., 0., 0., 0., 0., 0., 0., 0., 0., 0., 0., 0., 0., 0.,
          0., 0., 0., 0., 0., 0., 0., 0., 0., 0., 0., 0., 0., 0., 0., 0.,
          0., 0., 0., 0., 0., 0., 0., 0., 0., 0., 0., 0., 0., 0., 0., 0.,
          0., 0., 0., 0., 0., 0., 0., 0., 0., 0., 0., 0., 0., 0., 0., 0.,
          0., 0., 0., 0., 0., 0., 0., 0., 0., 0., 0., 0., 0., 0., 0., 0.,
          0., 0., 0., 0., 0., 0., 0., 0., 0., 0., 0., 0., 0., 0., 0., 0.,
          0., 0., 0., 0., 0., 0., 0., 0., 0., 0., 0., 0., 0., 0., 0., 0.,
          0., 0., 0., 0., 0., 0., 0., 0., 0., 0., 0., 0., 0., 0., 0., 0.,
          0., 0., 0., 0., 0., 0., 0., 0., 0., 0., 0., 0., 0., 0., 0., 0.,
          0., 0., 0., 0., 0., 0., 0., 0., 0., 0., 0., 0., 0., 0., 0., 0.,
          0., 0., 0., 0., 0., 0., 0., 0., 0., 0., 0., 0., 0., 0., 0., 0.,
          0., 0., 0., 0., 0., 0., 0., 0., 0., 0., 0., 0., 0., 0., 0., 0.,
          0., 0., 0., 0., 0., 0., 0., 0., 0., 0., 0., 0., 0., 0., 0., 0.,
          0., 0., 0., 0., 0., 0., 0., 0., 0., 0., 0., 0., 0., 0., 0., 0.,
          0., 0., 0., 0., 0., 0., 0., 0., 0., 0., 0., 0., 0., 0., 0., 0.,
          0., 0., 0., 0., 0., 0., 0., 0., 0., 0., 0., 0., 0., 0., 0., 0.,
          0., 0., 0., 0., 0., 0., 0., 0., 0., 0., 0., 0., 0., 0., 0., 0.,
          0., 0., 0., 0., 0., 0., 0., 0., 0., 0., 0., 0., 0., 0., 0., 0.,
          0., 0., 0., 0., 0., 0., 0., 0., 0., 0., 0., 0., 0., 0., 0., 0.,
          0., 0., 0., 0., 0., 0., 0., 0., 0., 0., 0., 0., 0., 0., 0., 0.,
          0., 0., 0., 0., 0., 0., 0., 0., 0., 0., 0., 0., 0., 0., 0., 0.,
          0., 0., 0., 0., 0., 0., 0., 0., 0., 0., 0., 0., 0., 0., 0., 0.,
          0., 0., 0., 0., 0., 0., 0., 0., 0., 0., 0., 0., 0., 0., 0., 0.,
          0., 0., 0., 0., 0., 0., 0., 0., 0., 0., 0., 0., 0., 0., 0., 0.,
          0., 0., 0., 0., 0., 0., 0., 0., 0., 0., 0., 0., 0., 0., 0., 0.,
          0., 0., 0., 0., 0., 0., 0., 0., 0., 0., 0., 0., 0., 0., 0., 0.,
          0., 0., 0., 0., 0., 0., 0., 0., 0., 0., 0., 0., 0., 0., 0., 0.,
          0., 0., 0., 0., 0., 0., 0., 0., 0., 0., 0., 0., 0., 0., 0., 0.,
          0., 0., 0., 0., 0., 0., 0., 0., 0., 0., 0., 0., 0., 0., 0., 0.,
          0., 0., 0., 0., 0., 0., 0., 0., 0., 0., 0., 0., 0., 0., 0., 0.,
          0., 0., 0., 0., 0., 0., 0., 0., 0., 0., 0., 0., 0., 0., 0., 0.,
          0., 0., 0., 0., 0., 0., 0., 0., 0., 0., 0., 0., 0., 0., 0., 0.,
          0., 0., 0., 0., 0., 0., 0., 0., 0., 0., 0., 0., 0., 0., 0., 0.,
          0., 0., 0., 0., 0., 0., 0., 0., 0., 0., 0., 0., 0., 0., 0., 0.,
          0., 0., 0., 0., 0., 0., 0., 0., 0., 0., 0., 0., 0., 0., 0., 0.,
          0., 0., 0., 0., 0., 0., 0., 0., 0., 0., 0., 0., 0., 0., 0., 0.,
          0., 0., 0., 0., 0., 0., 0., 0., 0., 0., 0., 0., 0., 0., 0., 0.,
          0., 0., 0., 0., 0., 0., 0., 0., 0., 0., 0., 0., 0., 0., 0., 0.,
          0., 0., 0., 0., 0., 0., 0., 0., 0., 0., 0., 0., 0., 0., 0., 0.,
          0., 0., 0., 0., 0., 0., 0., 0., 0., 0., 0., 0., 0., 0., 0., 0.,
          0., 0., 0., 0., 0., 0., 0., 0., 0., 0., 0., 0., 0., 0., 0., 0.,
          0., 0., 0., 0., 0., 0., 0., 0., 0., 0., 0., 0., 0., 0., 0., 0.,
          0., 0., 0., 0., 0., 0., 0., 0., 0., 0., 0., 0., 0., 0., 0., 0.,
          0., 0., 0., 0., 0., 0., 0., 0., 0., 0., 0., 0., 0., 0., 0., 0.,
          0., 0., 0., 0., 0., 0., 0., 0., 0., 0., 0., 0., 0., 0., 0., 0.,
          0., 0., 0., 0., 0., 0., 0., 0., 0., 0., 0., 0., 0., 0., 0., 0.,
          0., 0., 0., 0., 0., 0., 0., 0., 0., 0., 0., 0., 0., 0., 0., 0.,
          0., 0., 0., 0., 0., 0., 0., 0., 0., 0., 0., 0., 0., 0., 0., 0.,
          0., 0., 0., 0., 0., 0., 0., 0., 0., 0., 0., 0., 0., 0., 0., 0.,
          0., 0., 0., 0., 0., 0., 0., 0., 0., 0., 0., 0., 0., 0., 0., 0.,
          0., 0., 0., 0., 0., 0., 0., 0., 0., 0., 0., 0., 0., 0., 0., 0.,
          0., 0., 0., 0., 0., 0., 0., 0., 0., 0., 0., 0., 0., 0., 0., 0.,
          0., 0., 0., 0., 0., 0., 0., 0., 0., 0., 0., 0., 0., 0., 0., 0.,
          0., 0., 0., 0., 0., 0., 0., 0., 0., 0., 0., 0., 0., 0., 0., 0.,
          0., 0., 0., 0., 0., 0., 0., 0., 0., 0., 0., 0., 0., 0., 0., 0.,
          0., 0., 0., 0., 0., 0., 0., 0., 0., 0., 0., 0., 0., 0., 0., 0.,
          0., 0., 0., 0., 0., 0., 0., 0., 0., 0., 0., 0., 0., 0., 0., 0.,
          0., 0., 0., 0., 0., 0., 0., 0., 0., 0., 0., 0., 0., 0., 0., 0.,
          0., 0., 0., 0., 0., 0., 0., 0., 0., 0., 0., 0., 0., 0., 0., 0.,
          0., 0., 0., 0., 0., 0., 0., 0., 0., 0., 0., 0., 0., 0., 0., 0.,
          0., 0., 0., 0., 0., 0., 0., 0., 0., 0., 0., 0., 0., 0., 0., 0.,
          0., 0., 0., 0., 0., 0., 0., 0., 0., 0., 0., 0., 0., 0., 0., 0.,
          0., 0., 0., 0., 0., 0., 0., 0., 0., 0., 0., 0., 0., 0., 0., 0.,
          0., 0., 0., 0., 0., 0., 0., 0., 0., 0., 0., 0., 0., 0., 0., 0.,
          0., 0., 0., 0., 0., 0., 0., 0., 0., 0., 0., 0., 0., 0., 0., 0.,
          0., 0., 0., 0., 0., 0., 0., 0., 0., 0., 0., 0., 0., 0., 0., 0.,
          0., 0., 0., 0., 0., 0., 0., 0., 0., 0., 0., 0., 0., 0., 0., 0.,
          0., 0., 0., 0., 0., 0., 0., 0., 0., 0., 0., 0., 0., 0., 0., 0.,
          0., 0., 0., 0., 0., 0., 0., 0., 0., 0., 0., 0., 0., 0., 0., 0.,
          0., 0., 0., 0., 0., 0., 0., 0., 0., 0., 0., 0., 0., 0., 0., 0.,
          0., 0., 0., 0., 0., 0., 0., 0., 0., 0., 0., 0., 0., 0., 0., 0.,
          0., 0., 0., 0., 0., 0., 0., 0., 0., 0., 0., 0., 0., 0., 0., 0.,
          0., 0., 0., 0., 0., 0., 0., 0., 0., 0., 0., 0., 0., 0., 0., 0.,
          0., 0., 0., 0., 0., 0., 0., 0., 0., 0., 0., 0., 0., 0., 0., 0.,
          0., 0., 0., 0., 0., 0., 0., 0., 0., 0., 0., 0., 0., 0., 0., 0.,
          0., 0., 0., 0., 0., 0., 0., 0., 0., 0., 0., 0., 0., 0., 0., 0.,
          0., 0., 0., 0., 0., 0., 0., 0., 0., 0., 0., 0., 0., 0., 0., 0.,
          0., 0., 0., 0., 0., 0., 0., 0., 0., 0., 0., 0., 0., 0., 0., 0.,
          0., 0., 0., 0., 0., 0., 0., 0., 0., 0., 0., 0., 0., 0., 0., 0.,
          0., 0., 0., 0., 0., 0., 0., 0., 0., 0., 0., 0., 0., 0., 0., 0.,
          0., 0., 0., 0., 0., 0., 0., 0., 0., 0., 0., 0., 0., 0., 0., 0.,
          0., 0., 0., 0., 0., 0., 0., 0., 0., 0., 0., 0., 0., 0., 0., 0.,
          0., 0., 0., 0., 0., 0., 0., 0., 0., 0., 0., 0., 0., 0., 0., 0.,
          0., 0., 0., 0., 0., 0., 0., 0., 0., 0., 0., 0., 0., 0., 0., 0.,
          0., 0., 0., 0., 0., 0., 0., 0., 0., 0., 0., 0., 0., 0., 0., 0.,
          0., 0., 0., 0., 0., 0., 0., 0., 0., 0., 0., 0., 0., 0., 0., 0.,
          0., 0., 0., 0., 0., 0., 0., 0., 0., 0., 0., 0., 0., 0., 0., 0.,
          0., 0., 0., 0., 0., 0., 0., 0., 0., 0., 0., 0., 0., 0., 0., 0.,
          0., 0., 0., 0., 0., 0., 0., 0., 0., 0., 0., 0., 0., 0., 0., 0.,
          0., 0., 0., 0., 0., 0., 0., 0., 0., 0., 0., 0., 0., 0., 0., 0.,
          0., 0., 0., 0., 0., 0., 0., 0., 0., 0., 0., 0., 0., 0., 0., 0.,
          0., 0., 0., 0., 0., 0., 0., 0., 0., 0., 0., 0., 0., 0., 0., 0.,
          0., 0., 0., 0., 0., 0., 0., 0., 0., 0., 2.16882565e-34,
          4.59093403e-41, 2.24207754e-44, 0., 2.16957686e-34,
          4.59093403e-41, 2.19898994e-34, 4.59093403e-41, 0., 0.,
          2.16882565e-34, 4.59093403e-41, 3.36311631e-44, 0.,
          2.16941523e-34, 4.59093403e-41, 2.18720560e-34, 4.59093403e-41,
          2.19898994e-34, 4.59093403e-41, 0., 0., 2.16882565e-34,
          4.59093403e-41, 4.48415509e-44, 0., 2.16939686e-34,
          4.59093403e-41, 2.18720560e-34, 4.59093403e-41, 2.18720009e-34,
          4.59093403e-41, 2.19898994e-34, 4.59093403e-41, 0., 0.,
          2.16882565e-34, 4.59093403e-41, 4.48415509e-44, 0.,
          2.16940605e-34, 4.59093403e-41, 2.18720560e-34, 4.59093403e-41,
          2.20870062e-34, 4.59093403e-41, 2.19898994e-34, 4.59093403e-41,
          0., 0., 2.16882565e-34, 4.59093403e-41, 2.24207754e-44, 0.,
          2.16944278e-34, 4.59093403e-41, 2.19898994e-34, 4.59093403e-41,
          0., 0., 2.16882565e-34, 4.59093403e-41, 4.48415509e-44, 0.,
          2.17797063e-34, 4.59093403e-41, 2.66282715e-34, 4.59093403e-41,
          2.66283817e-34, 4.59093403e-41, 2.41545906e-34, 4.59093403e-41,
          0., 0., 2.16882565e-34, 4.59093403e-41, 4.48415509e-44, 0.,
          2.18057692e-34, 4.59093403e-41, 2.66282715e-34, 4.59093403e-41,
          2.66283817e-34, 4.59093403e-41, 2.41545906e-34, 4.59093403e-41,
          0., 0., 2.16882565e-34, 4.59093403e-41, 3.36311631e-44, 0.,
          2.17781634e-34, 4.59093403e-41, 2.66282715e-34, 4.59093403e-41,
          2.41545906e-34, 4.59093403e-41, 0., 0., 0., 0., 0., 0., 0., 0.,
          0., 0., 0., 0., 0., 0., 0., 0., 0., 0., 0., 0., 0., 0., 0., 0.,
          0., 0., 0., 0., 0., 0., 0., 0., 0., 0., 0., 0., 0., 0., 0., 0.,
          0., 0., 0., 0., 0., 0., 0., 0., 0., 0., 0., 0., 0., 0., 0., 0.,
          0., 0., 0., 0., 0., 0., 0., 0., 0., 0., 0., 0., 0., 0., 0., 0.,
          0., 0., 0., 0., 0., 0., 0., 0., 0., 0., 0., 0., 0., 0., 0., 0.,
          0., 0., 0., 0., 0., 0., 0., 0., 0., 0., 0., 0., 0., 0., 0., 0.,
          0., 0., 0., 0., 0., 0., 0., 0., 0., 0., 0., 0., 0., 0., 0., 0.,
          0., 0., 0., 0., 0., 0., 0., 0., 0., 0., 0., 0., 0., 0., 0., 0.,
          0., 0., 0., 0., 0., 0., 0., 0., 0., 0., 0., 0., 0., 0., 0., 0.,
          0., 0., 0., 0., 0., 0., 0., 0., 0., 0., 0., 0., 0., 0., 0., 0.,
          0., 0., 0., 0., 0., 0., 0., 0., 0., 0., 0., 0., 0., 0., 0., 0.,
          0., 0., 0., 0., 0., 0., 0., 0., 0., 0., 0., 0., 0., 0., 0., 0.,
          0., 0., 0., 0., 0., 0., 0., 0., 0., 0., 0., 0., 0., 0., 0., 0.,
          0., 0., 0., 0., 0., 0., 0., 0., 0., 0., 0., 0., 0., 0., 0., 0.,
          0., 0., 0., 0., 0., 0., 0., 0., 0., 0., 0., 0., 0., 0., 0., 0.,
          0., 0., 0., 0., 0., 0., 0., 0., 0., 0., 0., 0., 0., 0., 0., 0.,
          0., 0., 0., 0., 0., 0., 0., 0., 0., 0., 0., 0., 0., 0., 0., 0.,
          0., 0., 0., 0., 0., 0., 0., 0., 0., 0., 0., 0., 0., 0., 0., 0.,
          0., 0., 0., 0., 0., 0., 0., 0., 0., 0., 0., 0., 0., 0., 0., 0.,
          0., 0., 0., 0., 0., 0., 0., 0., 0., 0., 0., 0., 0., 0., 0., 0.,
          0., 0., 0., 0., 0., 0., 0., 0., 0., 0., 0., 0., 0., 0., 0., 0.,
          0., 0., 0., 0., 0., 0., 0., 0., 0., 0., 0., 0., 0., 0., 0., 0.,
          0., 0., 0., 0., 0., 0., 0., 0., 0., 0., 0., 0., 0., 0., 0., 0.,
          0., 0., 0., 0., 0., 0., 0., 0., 0., 0., 0., 0., 0., 0., 0., 0.,
          0., 0., 0., 0., 0., 0., 0., 0., 0., 0., 0., 0., 0., 0., 0., 0.,
          0., 0., 0., 0., 0., 0., 0., 0., 0., 0., 0., 0., 0., 0., 0., 0.,
          0., 0., 0., 0., 0., 0., 0., 0., 0., 0., 0., 0., 0., 0., 0., 0.,
          0., 0., 0., 0., 0., 0., 0., 0., 0., 0., 0., 0., 0., 0., 0., 0.,
          0., 0., 0., 0., 0., 0., 0., 0., 0., 0., 0., 0., 0., 0., 0., 0.,
          0., 0., 0., 0., 0., 0., 0., 0., 0., 0., 0., 0., 0., 0., 0., 0.,
          0., 0., 0., 0., 0., 0., 0., 0., 0., 0., 0., 0., 0., 0., 0., 0.,
          0., 0., 0., 0., 0., 0., 0., 0., 0., 0., 0., 0., 0., 0., 0., 0.,
          0., 0., 0., 0., 0., 0., 0., 0., 0., 0., 0., 0., 0., 0., 0., 0.,
          0., 0., 0., 0., 0., 0., 0., 0., 0., 0., 0., 0., 0., 0., 0., 0.,
          0., 0., 0., 0., 0., 0., 0., 0., 0., 0., 0., 0., 0., 0., 0., 0.,
          0., 0., 0., 0., 0., 0., 0., 0., 0., 0., 0., 0., 0., 0., 0., 0.,
          0., 0., 0., 0., 0., 0., 0., 0., 0., 0., 0., 0., 0., 0., 0., 0.,
          0., 0., 0., 0., 0., 0., 0., 0., 0., 0., 0., 0., 0., 0., 0., 0.,
          0., 0., 0., 0., 0., 0., 0., 0., 0., 0., 0., 0., 0., 0., 0., 0.,
          0., 0., 0., 0., 0., 0., 0., 0., 0., 0., 0., 0., 0., 0., 0., 0.,
          0., 0., 0., 0., 0., 0., 0., 0., 0., 0., 0., 0., 0., 0., 0., 0.,
          0., 0., 0., 0., 0., 0., 0., 0., 0., 0., 0., 0., 0., 0., 0., 0.,
          0., 0., 0., 0., 0., 0., 0., 0., 0., 0., 0., 0., 0., 0., 0., 0.,
          0., 0., 0., 0., 0., 0., 0., 0., 0., 0., 0., 0., 0., 0., 0., 0.,
          0., 0., 0., 0., 0., 0., 0., 0., 0., 0., 0., 0., 0., 0., 0., 0.,
          0., 0., 0., 0., 0., 0., 0., 0., 0., 0., 0., 0., 0., 0., 0., 0.,
          0., 0., 0., 0., 0., 0., 0., 0., 0., 0., 0., 0., 0., 0., 0., 0.,
          0., 0., 0., 0., 0., 0., 0., 0., 0., 0., 0., 0., 0., 0., 0., 0.,
          0., 0., 0., 0., 0., 0., 0., 0., 0., 0., 0., 0., 0., 0., 0., 0.,
          0., 0., 0., 0., 0., 0., 0., 0., 0., 0., 0., 0., 0., 0., 0., 0.,
          0., 0., 0., 0., 0., 0., 0., 0., 0., 0., 0., 0., 0., 0., 0., 0.,
          0., 0., 0., 0., 0., 0., 0., 0., 0., 0., 0., 0., 0., 0., 0., 0.,
          0., 0., 0., 0., 0., 0., 0., 0., 0., 0., 0., 0., 0., 0., 0., 0.,
          0., 0., 0., 0., 0., 0., 0., 0., 0., 0., 0., 0., 0., 0., 0., 0.,
          0., 0., 0., 0., 0., 0., 0., 0., 0., 0., 0., 0., 0., 0., 0., 0.,
          0., 0., 0., 0., 0., 0., 0., 0., 0., 0., 0., 0., 0., 0., 0., 0.,
          0., 0., 0., 0., 0., 0., 0., 0., 0., 0., 0., 0., 0., 0., 0., 0.,
          0., 0., 0., 0., 0., 0., 0., 0., 0., 0., 0., 0., 0., 0., 0., 0.,
          0., 0., 0., 0., 0., 0., 0., 0., 0., 0., 0., 0., 0., 0., 0., 0.,
          0., 0., 0., 0., 0., 0., 0., 0., 0., 0., 0., 0., 0., 0., 0., 0.,
          0., 0., 0., 0., 0., 0., 0., 0., 0., 0., 0., 0., 0., 0., 0., 0.,
          0., 0., 0., 0., 0., 0., 0., 0., 0., 0., 0., 0., 0., 0., 0., 0.,
          0., 0., 0., 0., 0., 0., 0., 0., 0., 0., 0., 0., 0., 0., 0., 0.,
          0., 0., 0., 0., 0., 0., 0., 0., 0., 0., 0., 0., 0., 0., 0., 0.,
          0., 0., 0., 0., 0., 0., 0., 0., 0., 0., 0., 0., 0., 0., 0., 0.,
          0., 0., 0., 0., 0., 0., 0., 0., 0., 0., 0., 0., 0., 0., 0., 0.,
          0., 0., 0., 0., 0., 0., 0., 0., 0., 0., 0., 0., 0., 0., 0., 0.,
          0., 0., 0., 0., 0., 0., 0., 0., 0., 0., 0., 0., 0., 0., 0., 0.,
          0., 0., 0., 0., 0., 0., 0., 0., 0., 0., 0., 0., 0., 0., 0., 0.,
          0., 0., 0., 0., 0., 0., 0., 0., 0., 0., 0., 0., 0., 0., 0., 0.,
          0., 0., 0., 0., 0., 0., 0., 0., 0., 0., 0., 0., 0., 0., 0., 0.,
          0., 0., 0., 0., 0., 0., 0., 0., 0., 0., 0., 0., 0., 0., 0., 0.,
          0., 0., 0., 0., 0., 0., 0., 0., 0., 0., 0., 0., 0., 0., 0., 0.,
          0., 0., 0., 0., 0., 0., 0., 0., 0., 0., 0., 0., 0., 0., 0., 0.,
          0., 0., 0., 0., 0., 0., 0., 0., 0., 0., 0., 0., 0., 0., 0., 0.,
          0., 0., 0., 0., 0., 0., 0., 0., 0., 0., 0., 0., 0., 0., 0., 0.,
          0., 0., 0., 0., 0., 0., 0., 0., 0., 0., 0., 0., 0., 0., 0., 0.,
          0., 0., 0., 0., 0., 0., 0., 0., 0., 0., 0., 0., 0., 0., 0., 0.,
          0., 0., 0., 0., 0., 0., 0., 0., 0., 0., 0., 0., 0., 0., 0., 0.,
          0., 0., 0., 0., 0., 0., 0., 0., 0., 0., 0., 0., 0., 0., 0., 0.,
          0., 0., 0., 0., 0., 0., 0., 0., 0., 0., 0., 0., 0., 0., 0., 0.,
          0., 0., 0., 0., 0., 0., 0., 0., 0., 0., 0., 0., 0., 0., 0., 0.,
          0., 0., 0., 0., 0., 0., 0., 0., 0., 0., 0., 0., 0., 0., 0., 0.,
          0., 0., 0., 0., 0., 0., 0., 0., 0., 0., 0., 0., 0., 0., 0., 0.,
          0., 0., 0., 0., 0., 0., 0., 0., 0., 0., 0., 0., 0., 0., 0., 0.,
          0., 0., 0., 0., 0., 0., 0., 0., 0., 0., 0., 0., 0., 0., 0., 0.,
          0., 0., 0., 0., 0., 0., 0., 0., 0., 0., 0., 0., 0., 0., 0., 0.,
          0., 0., 0., 0., 0., 0., 0., 0., 0., 0., 0., 0., 0., 0., 0., 0.,
          0., 0., 0., 0., 0., 0., 0., 0., 0., 0., 0., 0., 0., 0., 0., 0.,
          0., 0., 0., 0., 0., 0., 0., 0., 0., 0., 0., 0., 0., 0., 0., 0.,
          0., 0., 0., 0., 0., 0., 0., 0., 0., 0., 0., 0., 0., 0., 0., 0.,
          0., 0., 0., 0., 0., 0., 0., 0., 0., 0., 0., 0., 0., 0., 0., 0.,
          0., 0., 0., 0., 0., 0., 0., 0., 0., 0., 0., 0., 0., 0., 0., 0.,
          0., 0., 0., 0., 0., 0., 0., 0., 0., 0., 0., 0., 0., 0., 0., 0.,
          0., 0., 0., 0., 0., 0., 0., 0., 0., 0., 0., 0., 0., 0., 0., 0.,
          0., 0., 0., 0., 0., 0., 0., 0., 0., 0., 0., 0., 0., 0., 0., 0.,
          0., 0., 0., 0., 0., 0., 0., 0., 0., 0., 0., 0., 0., 0., 0., 0.,
          0., 0., 0., 0., 0., 0., 0., 0., 0., 0., 0., 0., 0., 0., 0., 0.,
          0., 0., 0., 0., 0., 0., 0., 0., 0., 0., 0., 0., 0., 0., 0., 0.,
          0., 0., 0., 0., 0., 0., 0., 0., 0., 0., 0., 0., 0., 0., 0., 0.,
          0., 0., 0., 0., 0., 0., 0., 0., 0., 0., 0., 0., 0., 0., 0., 0.,
          0., 0., 0., 0., 0., 0., 0., 0., 0., 0., 0., 0., 0., 0., 0., 0.,
          0., 0., 0., 0., 0., 0., 0., 0., 0., 0., 0., 0., 0., 0., 0., 0.,
          0., 0., 0., 0., 0., 0., 0., 0., 0., 0., 0., 0., 0., 0., 0., 0.,
          0., 0., 0., 0., 0., 0., 0., 0., 0., 0., 0., 0., 0., 0., 0., 0.,
          0., 0., 0., 0., 0., 0., 0., 0., 0., 0., 0., 0., 0., 0., 0., 0.,
          0., 0., 0., 0., 0., 0., 0., 0., 0., 0., 0., 0., 0., 0., 0., 0.,
          0., 0., 0., 0., 0., 0., 0., 0., 0., 0., 0., 0., 0., 0., 0., 0.,
          0., 0., 0., 0., 0., 0., 0., 0., 0., 0., 0., 0., 0., 0., 0., 0.,
          0., 0., 0., 0., 0., 0., 0., 0., 0., 0., 0., 0., 0., 0., 0., 0.,
          0., 0., 0., 0., 0., 0., 0., 0., 0., 0., 0., 0., 0., 0., 0., 0.,
          0., 0., 0., 0., 0., 0., 0., 0., 0., 0., 0., 0., 0., 0., 0., 0.,
          0., 0., 0., 0., 0., 0., 0., 0., 0., 0., 0., 0., 0., 0., 0., 0.,
          0., 0., 0., 0., 0., 0., 0., 0., 0., 0., 0., 0., 0., 0., 0., 0.,
          0., 0., 0., 0., 0., 0., 0., 0., 0., 0., 0., 0., 0., 0., 0., 0.,
          0., 0., 0., 0., 0., 0., 0., 0., 0., 0., 0., 0., 0., 0., 0., 0.,
          0., 0., 0., 0., 0., 0., 0., 0., 0., 0., 0., 0., 0., 0., 0., 0.,
          0., 0., 0., 0., 0., 0., 0., 0., 0., 0., 0., 0., 0., 0., 0., 0.,
          0., 0., 0., 0., 0., 0., 0., 0., 0., 0., 0., 0., 0., 0., 0., 0.,
          0., 0., 0., 0., 0., 0., 0., 0., 0., 0., 0., 0., 0., 0., 0., 0.,
          0., 0., 0., 0., 0., 0., 0., 0., 0., 0., 0., 0., 0., 0., 0., 0.,
          0., 0., 0., 0., 0., 0., 0., 0., 0., 0., 0., 0., 0., 0., 0., 0.,
          0., 0., 0., 0., 0., 0., 0., 0., 0., 0., 0., 0., 0., 0., 0., 0.,
          0., 0., 0., 0., 0., 0., 0., 0., 0., 0., 0., 0., 0., 0., 0., 0.,
          0., 0., 0., 0., 0., 0., 0., 0., 0., 0., 0., 0., 0., 0., 0., 0.,
          0., 0., 0., 0., 0., 0., 0., 0., 0., 0., 0., 0., 0., 0., 0., 0.,
          0., 0., 0., 0., 0., 0., 0., 0., 0., 0., 0., 0., 0., 0., 0., 0.,
          0., 0., 0., 0., 0., 0., 0., 0., 0., 0., 0., 0., 0., 0., 0., 0.,
          0., 0., 0., 0., 0., 0., 0., 0., 0., 0., 0., 0., 0., 0., 0., 0.,
          0., 0., 0., 0., 0., 0., 0., 0., 0., 0., 0., 0., 0., 0., 0., 0.,
          0., 0., 0., 0., 0., 0., 0., 0., 0., 0., 0., 0., 0., 0., 0., 0.,
          0., 0., 0., 0., 0., 0., 0., 0., 0., 0., 0., 0., 0., 0., 0., 0.,
          0., 0., 0., 0., 0., 0., 0., 0., 0., 0., 0., 0., 0., 0., 0., 0.,
          0., 0., 0., 0., 0., 0., 0., 0., 0., 0., 0., 0., 0., 0., 0., 0.,
          0., 0., 0., 0., 0., 0., 0., 0., 0., 0., 0., 0., 0., 0., 0., 0.,
          0., 0., 0., 0., 0., 0., 0., 0., 0., 0., 0., 0., 0., 0., 0., 0.,
          0., 0., 0., 0., 0., 0., 0., 0., 0., 0., 0., 0., 0., 0., 0., 0.,
          0., 0., 0., 0., 0., 0., 0., 0., 0., 0., 0., 0., 0., 0., 0., 0.,
          0., 0., 0., 0., 0., 0., 0., 0., 0., 0., 0., 0., 0., 0., 0., 0.,
          0., 0., 0., 0., 0., 0., 0., 0., 0., 0., 0., 0., 0., 0., 0., 0.,
          0., 0., 0., 0., 0., 0., 0., 0., 0., 0., 0., 0., 0., 0., 0., 0.,
          0., 0., 0., 0., 0., 0., 0., 0., 0., 0., 0., 0., 0., 0., 0., 0.,
          0., 0., 0., 0., 0., 0., 0., 0., 0., 0., 0., 0., 0., 0., 0., 0.,
          0., 0., 0., 0., 0., 0., 0., 0., 0., 0., 0., 0., 0., 0., 0., 0.,
          0., 0., 0., 0., 0., 0., 0., 0., 0., 0., 0., 0., 0., 0., 0., 0.,
          0., 0., 0., 0., 0., 0., 0., 0., 0., 0., 0., 0., 0., 0., 0., 0.,
          0., 0., 0., 0., 0., 0., 0., 0., 0., 0., 0., 0., 0., 0., 0., 0.,
          0., 0., 0., 0., 0., 0., 0., 0., 0., 0., 0., 0., 0., 0., 0., 0.,
          0., 0., 0., 0., 0., 0., 0., 0., 0., 0., 0., 0., 0., 0., 0., 0.,
          0., 0., 0., 0., 0., 0., 0., 0., 0., 0., 0., 0., 0., 0., 0., 0.,
          0., 0., 0., 0., 0., 0., 0., 0., 0., 0., 0., 0., 0., 0., 0., 0.,
          0., 0., 0., 0., 0., 0., 0., 0., 0., 0., 0., 0., 0., 0., 0., 0.,
          0., 0., 0., 0., 0., 0., 0., 0., 0., 0., 0., 0., 0., 0., 0., 0.,
          0., 0., 0., 0., 0., 0., 0., 0., 0., 0., 0., 0., 0., 0., 0., 0.,
          0., 0., 0., 0., 0., 0., 0., 0., 0., 0., 0., 0., 0., 0., 0., 0.,
          0., 0., 0., 0., 0., 0., 0., 0., 0., 0., 0., 0., 0., 0., 0., 0.,
          0., 0., 0., 0., 0., 0., 0., 0., 0., 0., 0., 0., 0., 0., 0., 0.,
          0., 0., 0., 0., 0., 0., 0., 0., 0., 0., 0., 0., 0., 0., 0., 0.,
          0., 0., 0., 0., 0., 0., 0., 0., 0., 0., 0., 0., 0., 0., 0., 0.,
          0., 0., 0., 0., 0., 0., 0., 0., 0., 0., 0., 0., 0., 0., 0., 0.,
          0., 0., 0., 0., 0., 0., 0., 0., 0., 0., 0., 0., 0., 0., 0., 0.,
          0., 0., 0., 0., 0., 0., 0., 0., 0., 0., 0., 0., 0., 0., 0., 0.,
          0., 0., 0., 0., 0., 0., 0., 0., 0., 0., 0., 0., 0., 0., 0., 0.,
          0., 0., 0., 0., 0., 0., 0., 0., 0., 0., 0., 0., 0., 0., 0., 0.,
          0., 0., 0., 0., 0., 0., 0., 0., 0., 0., 0., 0., 0., 0., 0., 0.,
          0., 0., 0., 0., 0., 0., 0., 0., 0., 0., 0., 0., 0., 0., 0., 0.,
          0., 0., 0., 0., 0., 0., 0., 0., 0., 0., 0., 0., 0., 0., 0., 0.,
          0., 0., 0., 0., 0., 0., 0., 0., 0., 0., 0., 0., 0., 0., 0., 0.,
          0., 0., 0., 0., 0., 0., 0., 0., 0., 0., 0., 0., 0., 0., 0., 0.,
          0., 0., 0., 0., 0., 0., 0., 0., 0., 0., 0., 0., 0., 0., 0., 0.,
          0., 0., 0., 0., 0., 0., 0., 0., 0., 0., 0., 0., 0., 0., 0., 0.,
          0., 0., 0., 0., 0., 0., 0., 0., 0., 0., 0., 0., 0., 0., 0., 0.,
          0., 0., 0., 0., 0., 0., 0., 0., 0., 0., 0., 0., 0., 0., 0., 0.,
          0., 0., 0., 0., 0., 0., 0., 0., 0., 0., 0., 0., 0., 0., 0., 0.,
          0., 0., 0., 0., 0., 0., 0., 0., 0., 0., 0., 0., 0., 0., 0., 0.,
          0., 0., 0., 0., 0., 0., 0., 0., 0., 0., 0., 0., 0., 0., 0., 0.,
          0., 0., 0., 0., 0., 0., 0., 0., 0., 0., 0., 0., 0., 0., 0., 0.,
          0., 0., 0., 0., 0., 0., 0., 0., 0., 0., 0., 0., 0., 0., 0., 0.,
          0., 0., 0., 0., 0., 0., 0., 0., 0., 0., 0., 0., 0., 0., 0., 0.,
          0., 0., 0., 0., 0., 0., 0., 0., 0., 0., 0., 0., 0., 0., 0., 0.,
          0., 0., 0., 0., 0., 0., 0., 0., 0., 0., 0., 0., 0., 0., 0., 0.,
          0., 0., 0., 0., 0., 0., 0., 0., 0., 0., 0., 0., 0., 0., 0., 0.,
          0., 0., 0., 0., 0., 0., 0., 0., 0., 0., 0., 0., 0., 0., 0., 0.,
          0., 0., 0., 0., 0., 0., 0., 0., 0., 0., 0., 0., 0., 0., 0., 0.,
          0., 0., 0., 0., 0., 0., 0., 0., 0., 0., 0., 0., 0., 0., 0., 0.,
          0., 0., 0., 0., 0., 0., 0., 0., 0., 0., 0., 0., 0., 0., 0., 0.,
          0., 0., 0., 0., 0., 0., 0., 0., 0., 0., 0., 0., 0., 0., 0., 0.,
          0., 0., 0., 0., 0., 0., 0., 0., 0., 0., 0., 0., 0., 0., 0., 0.,
          0., 0., 0., 0., 0., 0., 0., 0., 0., 0., 0., 0., 0., 0., 0., 0.,
          0., 0., 0., 0., 0., 0., 0., 0., 0., 0., 0., 0., 0., 0., 0., 0.,
          0., 0., 0., 0., 0., 0., 0., 0., 0., 0., 0., 0., 0., 0., 0., 0.,
          0., 0., 0., 0., 0., 0., 0., 0., 0., 0., 0., 0., 0., 0., 0., 0.,
          0., 0., 0., 0., 0., 0., 0., 0., 0., 0., 0., 0., 0., 0., 0., 0.,
          0., 0., 0., 0., 0., 0., 0., 0., 0., 0., 0., 0., 0., 0., 0., 0.,
          0., 0., 0., 0., 0., 0., 0., 0., 0., 0., 0., 0., 0., 0., 0., 0.,
          0., 0., 0., 0., 0., 0., 0., 0., 0., 0., 0., 0., 0., 0., 0., 0.,
          0., 0., 0., 0., 0., 0., 0., 0., 0., 0., 0., 0., 0., 0., 0., 0.,
          0., 0., 0., 0., 0., 0., 0., 0., 0., 0., 0., 0., 0., 0., 0., 0.,
          0., 0., 0., 0., 0., 0., 0., 0., 0., 0., 0., 0., 0., 0., 0., 0.,
          0., 0., 0., 0., 0., 0., 0., 0., 0., 0., 0., 0., 0., 0., 0., 0.,
          0., 0., 0., 0., 0., 0., 0., 0., 0., 0., 0., 0., 0., 0., 0., 0.,
          0., 0., 0., 0., 0., 0., 0., 0., 0., 0., 0., 0., 0., 0., 0., 0.,
          0., 0., 0., 0., 0., 0., 0., 0., 0., 0., 0., 0., 0., 0., 0., 0.,
          0., 0., 0., 0., 0., 0., 0., 0., 0., 0., 0., 0., 0., 0., 0., 0.,
          0., 0., 0., 0., 0., 0., 0., 0., 0., 0., 0., 0., 0., 0., 0., 0.,
          0., 0., 0., 0., 0., 0., 0., 0., 0., 0., 0., 0., 0., 0., 0., 0.,
          0., 0., 0., 0., 0., 0., 0., 0., 0., 0., 0., 0., 0., 0., 0., 0.,
          0., 0., 0., 0., 0., 0., 0., 0., 0., 0., 0., 0., 0., 0., 0., 0.,
          0., 0., 0., 0., 0., 0., 0., 0., 0., 0., 0., 0., 0., 0., 0., 0.,
          0., 0., 0., 0., 0., 0., 0., 0., 0., 0., 0., 0., 0., 0., 0., 0.,
          0., 0., 0., 0., 0., 0., 0., 0., 0., 0., 0., 0., 0., 0., 0., 0.,
          0., 0., 0., 0., 0., 0., 0., 0., 0., 0., 0., 0., 0., 0., 0., 0.,
          0., 0., 0., 0., 0., 0., 0., 0., 0., 0., 0., 0., 0., 0., 0., 0.,
          0., 0., 0., 0., 0., 0., 0., 0., 0., 0., 0., 0., 0., 0., 0., 0.,
          0., 0., 0., 0., 0., 0., 0., 0., 0., 0., 0., 0., 0., 0., 0., 0.,
          0., 0., 0., 0., 0., 0., 0., 0., 0., 0., 0., 0., 0., 0., 0., 0.,
          0., 0., 0., 0., 0., 0., 0., 0., 0., 0., 0., 0., 0., 0., 0., 0.,
          0., 0., 0., 0., 0., 0., 0., 0., 0., 0., 0., 0., 0., 0., 0., 0.,
          0., 0., 0., 0., 0., 0., 0., 0., 0., 0., 0., 0., 0., 0., 0., 0.,
          0., 0., 0., 0., 0., 0., 0., 0., 0., 0., 0., 0., 0., 0., 0., 0.,
          0., 0., 0., 0., 0., 0., 0., 0., 0., 0., 0., 0., 0., 0., 0., 0.,
          0., 0., 0., 0., 0., 0., 0., 0., 0., 0., 0., 0., 0., 0., 0., 0.,
          0., 0., 0., 0., 0., 0., 0., 0., 0., 0., 0., 0., 0., 0., 0., 0.,
          0., 0., 0., 0., 0., 0., 0., 0., 0., 0., 0., 0., 0., 0., 0., 0.,
          0., 0., 0., 0., 0., 0., 0., 0., 0., 0., 0., 0., 0., 0., 0., 0.,
          0., 0., 0., 0., 0., 0., 0., 0., 0., 0., 0., 0., 0., 0., 0., 0.,
          0., 0., 0., 0., 0., 0., 0., 0., 0., 0., 0., 0., 0., 0., 0., 0.,
          0., 0., 0., 0., 0., 0., 0., 0., 0., 0., 0., 0., 0., 0., 0., 0.,
          0., 0., 0., 0., 0., 0., 0., 0., 0., 0., 0., 0., 0., 0., 0., 0.,
          0., 0., 0., 0., 0., 0., 0., 0., 0., 0., 0., 0., 0., 0., 0., 0.,
          0., 0., 0., 0., 0., 0., 0., 0., 0., 0., 0., 0., 0., 0., 0., 0.,
          0., 0., 0., 0., 0., 0., 0., 0., 0., 0., 0., 0., 0., 0., 0., 0.,
          0., 0., 0., 0., 0., 0., 0., 0., 0., 0., 0., 0., 0., 0., 0., 0.,
          0., 0., 0., 0., 0., 0., 0., 0., 0., 0., 0., 0., 0., 0., 0., 0.,
          0., 0., 0., 0., 0., 0., 0., 0., 0., 0., 0., 0., 0., 0., 0., 0.,
          0., 0., 0., 0., 0., 0., 0., 0., 0., 0., 0., 0., 0., 0., 0., 0.,
          0., 0., 0., 0., 0., 0., 0., 0., 0., 0., 0., 0., 0., 0., 0., 0.,
          0., 0., 0., 0., 0., 0., 0., 0., 0., 0., 0., 0., 0., 0., 0., 0.,
          0., 0., 0., 0., 0., 0., 0., 0., 0., 0., 0., 0., 0., 0., 0., 0.,
          0., 0., 0., 0., 0., 0., 0., 0., 0., 0., 0., 0., 0., 0., 0., 0.,
          0., 0., 0., 0., 0., 0., 0., 0., 0., 0., 0., 0., 0., 0., 0., 0.,
          0., 0., 0., 0., 0., 0., 0., 0., 0., 0., 0., 0., 0., 0., 0., 0.,
          0., 0., 0., 0., 0., 0., 0., 0., 0., 0., 0., 0., 0., 0., 0., 0.,
          0., 0., 0., 0., 0., 0., 0., 0., 0., 0., 0., 0., 0., 0., 0., 0.,
          0., 0., 0., 0., 0., 0., 0., 0., 0., 0., 0., 0., 0., 0., 0., 0.,
          0., 0., 0., 0., 0., 0., 0., 0., 0., 0., 0., 0., 0., 0., 0., 0.,
          0., 0., 0., 0., 0., 0., 0., 0., 0., 0., 0., 0., 0., 0., 0., 0.,
          0., 0., 0., 0., 0., 0., 0., 0., 0., 0., 0., 0., 0., 0., 0., 0.,
          0., 0., 0., 0., 0., 0., 0., 0., 0., 0., 0., 0., 0., 0., 0., 0.,
          0., 0., 0., 0., 0., 0., 0., 0., 0., 0., 0., 0., 0., 0., 0., 0.,
          0., 0., 0., 0., 0., 0., 0., 0., 0., 0., 0., 0., 0., 0., 0., 0.,
          0., 0., 0., 0., 0., 0., 0., 0., 0., 0., 0., 0., 0., 0., 0., 0.,
          0., 0., 0., 0., 0., 0., 0., 0., 0., 0., 0., 0., 0., 0., 0., 0.,
          0., 0., 0., 0., 0., 0., 0., 0., 0., 0., 0., 0., 0., 0., 0., 0.,
          0., 0., 0., 0., 0., 0., 0., 0., 0., 0., 0., 0., 0., 0., 0., 0.,
          0., 0., 0., 0., 0., 0., 0., 0., 0., 0., 0., 0., 0., 0., 0., 0.,
          0., 0., 0., 0., 0., 0., 0., 0., 0., 0., 0., 0., 0., 0., 0., 0.,
          0., 0., 0., 0., 0., 0., 0., 0., 0., 0., 0., 0., 0., 0., 0., 0.,
          0., 0., 0., 0., 0., 0., 0., 0., 0., 0., 0., 0., 0., 0., 0., 0.,
          0., 0., 0., 0., 0., 0., 0., 0., 0., 0., 0., 0., 0., 0., 0., 0.,
          0., 0., 0., 0., 0., 0., 0., 0., 0., 0., 0., 0., 0., 0., 0., 0.,
          0., 0., 0., 0., 0., 0., 0., 0., 0., 0., 0., 0., 0., 0., 0., 0.,
          0., 0., 0., 0., 0., 0., 0., 0., 0., 0., 0., 0., 0., 0., 0., 0.,
          0., 0., 0., 0., 0., 0., 0., 0., 0., 0., 0., 0., 0., 0., 0., 0.,
          0., 0., 0., 0., 0., 0., 0., 0., 0., 0., 0., 0., 0., 0., 0., 0.,
          0., 0., 0., 0., 0., 0., 0., 0., 0., 0., 0., 0., 0., 0., 0., 0.,
          0., 0., 0., 0., 0., 0., 0., 0., 0., 0., 0., 0., 0., 0., 0., 0.,
          0., 0., 0., 0., 0., 0., 0., 0., 0., 0., 0., 0., 0., 0., 0., 0.,
          0., 0., 0., 0., 0., 0., 0., 0., 0., 0., 0., 0., 0., 0., 0., 0.,
          0., 0., 0., 0., 0., 0., 0., 0., 0., 0., 0., 0., 0., 0., 0., 0.,
          0., 0., 0., 0., 0., 0., 0., 0., 0., 0., 0., 0., 0., 0., 0., 0.,
          0., 0., 0., 0., 0., 0., 0., 0., 0., 0., 0., 0., 0., 0., 0., 0.,
          0., 0., 0., 0., 0., 0., 0., 0., 0., 0., 0., 0., 0., 0., 0., 0.,
          0., 0., 0., 0., 0., 0., 0., 0., 0., 0., 0., 0., 0., 0., 0., 0.,
          0., 0., 0., 0., 0., 0., 0., 0., 0., 0., 0., 0., 0., 0., 0., 0.,
          0., 0., 0., 0., 0., 0., 0., 0., 0., 0., 0., 0., 0., 0., 0., 0.,
          0., 0., 0., 0., 0., 0., 0., 0., 0., 0., 0., 0., 0., 0., 0., 0.,
          0., 0., 0., 0., 0., 0., 0., 0., 0., 0., 0., 0., 0., 0., 0., 0.,
          0., 0., 0., 0., 0., 0., 0., 0., 0., 0., 0., 0., 0., 0., 0., 0.,
          0., 0., 0., 0., 0., 0., 0., 0., 0., 0., 0., 0., 0., 0., 0., 0.,
          0., 0., 0., 0., 0., 0., 0., 0., 0., 0., 0., 0., 0., 0., 0., 0.,
          0., 0., 0., 0., 0., 0., 0., 0., 0., 0., 0., 0., 0., 0., 0., 0.,
          0., 0., 0., 0., 0., 0., 0., 0., 0., 0., 0., 0., 0., 0., 0., 0.,
          0., 0., 0., 0., 0., 0., 0., 0., 0., 0., 0., 0., 0., 0., 0., 0.,
          0., 0., 0., 0., 0., 0., 0., 0., 0., 0., 0., 0., 0., 0., 0., 0.,
          0., 0., 0., 0., 0., 0., 0., 0., 0., 0., 0., 0., 0., 0., 0., 0.,
          0., 0., 0., 0., 0., 0., 0., 0., 0., 0., 0., 0., 0., 0., 0., 0.,
          0., 0., 0., 0., 0., 0., 0., 0., 0., 0., 0., 0., 0., 0., 0., 0.,
          0., 0., 0., 0., 0., 0., 0., 0., 0., 0., 0., 0., 0., 0., 0., 0.,
          0., 0., 0., 0., 0., 0., 0., 0., 0., 0., 0., 0., 0., 0., 0., 0.,
          0., 0., 0., 0., 0., 0., 0., 0., 0., 0., 0., 0., 0., 0., 0., 0.,
          0., 0., 0., 0., 0., 0., 0., 0., 0., 0., 0., 0., 0., 0., 0., 0.,
          0., 0., 0., 0., 0., 0., 0., 0., 0., 0., 0., 0., 0., 0., 0., 0.,
          0., 0., 0., 0., 0., 0., 0., 0., 0., 0., 0., 0., 0., 0., 0., 0.,
          0., 0., 0., 0., 0., 0., 0., 0., 0., 0., 0., 0., 0., 0., 0., 0.,
          0., 0., 0., 0., 0., 0., 0., 0., 0., 0., 0., 0., 0., 0., 0., 0.,
          0., 0., 0., 0., 0., 0., 0., 0., 0., 0., 0., 0., 0., 0., 0., 0.,
          0., 0., 0., 0., 0., 0., 0., 0., 0., 0., 0., 0., 0., 0., 0., 0.,
          0., 0., 0., 0., 0., 0., 0., 0., 0., 0., 0., 0., 0., 0., 0., 0.,
          0., 0., 0., 0., 0., 0., 0., 0., 0., 0., 0., 0., 0., 0., 0., 0.,
          0., 0., 0., 0., 0., 0., 0., 0., 0., 0., 0., 0., 0., 0., 0., 0.,
          0., 0., 0., 0., 0., 0., 0., 0., 0., 0., 0., 0., 0., 0., 0., 0.,
          0., 0., 0., 0., 0., 0., 0., 0., 0., 0., 0., 0., 0., 0., 0., 0.,
          0., 0., 0., 0., 0., 0., 0., 0., 0., 0., 0., 0., 0., 0., 0., 0.,
          0., 0., 0., 0., 0., 0., 0., 0., 0., 0., 0., 0., 0., 0., 0., 0.,
          0., 0., 0., 0., 0., 0., 0., 0., 0., 0., 0., 0., 0., 0., 0., 0.,
          0., 0., 0., 0., 0., 0., 0., 0., 0., 0., 0., 0., 0., 0., 0., 0.,
          0., 0., 0., 0., 0., 0., 0., 0., 0., 0., 0., 0., 0., 0., 0., 0.,
          0., 0., 0., 0., 0., 0., 0., 0., 0., 0., 0., 0., 0., 0., 0., 0.,
          0., 0., 0., 0., 0., 0., 0., 0., 0., 0., 0., 0., 0., 0., 0., 0.,
          0., 0., 0., 0., 0., 0., 0., 0., 0., 0., 0., 0., 0., 0., 0., 0.,
          0., 0., 0., 0., 0., 0., 0., 0., 0., 0., 0., 0., 0., 0., 0., 0.,
          0., 0., 0., 0., 0., 0., 0., 0., 0., 0., 0., 0., 0., 0., 0., 0.,
          0., 0., 0., 0., 0., 0., 0., 0., 0., 0., 0., 0., 0., 0., 0., 0.,
          0., 0., 0., 0., 0., 0., 0., 0., 0., 0., 0., 0., 0., 0., 0., 0.,
          0., 0., 0., 0., 0., 0., 0., 0., 0., 0., 0., 0., 0., 0., 0., 0.,
          0., 0., 0., 0., 0., 0., 0., 0., 0., 0., 0., 0., 0., 0., 0., 0.,
          0., 0., 0., 0., 0., 0., 0., 0., 0., 0., 0., 0., 0., 0., 0., 0.,
          0., 0., 0., 0., 0., 0., 0., 0., 0., 0., 0., 0., 0., 0., 0., 0.,
          0., 0., 0., 0., 0., 0., 0., 0., 0., 0., 0., 0., 0., 0., 0., 0.,
          0., 0., 0., 0., 0., 0., 0., 0., 0., 0., 0., 0., 0., 0., 0., 0.,
          0., 0., 0., 0., 0., 0., 0., 0., 0., 0., 0., 0., 0., 0., 0., 0.,
          0., 0., 0., 0., 0., 0., 0., 0., 0., 0., 0., 0., 0., 0., 0., 0.,
          0., 0., 0., 0., 0., 0., 0., 0., 0., 0., 0., 0., 0., 0., 0., 0.,
          0., 0., 0., 0., 0., 0., 0., 0., 0., 0., 0., 0., 0., 0., 0., 0.,
          0., 0., 0., 0., 0., 0., 0., 0., 0., 0., 0., 0., 0., 0., 0., 0.,
          0., 0., 0., 0., 0., 0., 0., 0., 0., 0., 0., 0., 0., 0., 0., 0.,
          0., 0., 0., 0., 0., 0., 0., 0., 0., 0., 0., 0., 0., 0., 0., 0.,
          0., 0., 0., 0., 0., 0., 0., 0., 0., 0., 0., 0., 0., 0., 0., 0. ]
   responses: !!opencv-matrix
      rows: 1
      cols: 10
      dt: f
      data: [ 0., 1., 2., 3., 4., 5., 6., 7., 8., 9. ]
