%YAML:1.0
---
opencv_ml_knn:
   format: 3
   is_classifier: 1
   default_k: 10
   samples: !!opencv-matrix
      rows: 1
      cols: 925
      dt: f
      data: [ 0., 0., 1., 1., 0., 0., 0., 0., 2., 0., 0., 2., 0., 0., 0.,
          0., 0., 0., 1., 0., 0., 1., 0., 1., 0., 0., 2., 0., 0., 4., 1.,
          2., 0., 0., 2., 0., 0., 0., 1., 0., 0., 2., 0., 1., 1., 0., 0.,
          0., 0., 0., 0., 3., 0., 1., 0., 0., 0., 1., 0., 2., 0., 250.,
          5., 0., 0., 1., 0., 1., 0., 0., 3., 0., 3., 0., 0., 0., 0., 0.,
          2., 1., 1., 0., 255., 254., 255., 255., 255., 255., 255., 255.,
          255., 255., 0., 0., 0., 0., 0., 0., 3., 0., 1., 0., 3., 2., 0.,
          251., 255., 254., 255., 255., 251., 255., 255., 253., 255.,
          252., 254., 255., 0., 0., 4., 6., 0., 0., 0., 1., 0., 0., 0.,
          253., 255., 252., 255., 254., 255., 255., 253., 254., 255.,
          253., 255., 255., 253., 255., 1., 0., 0., 2., 0., 0., 0., 5.,
          0., 0., 255., 255., 255., 251., 255., 0., 2., 0., 3., 0., 253.,
          254., 255., 255., 255., 254., 3., 0., 1., 0., 0., 1., 0., 0.,
          255., 255., 254., 253., 255., 0., 1., 0., 0., 0., 0., 2., 0.,
          255., 255., 255., 253., 2., 0., 0., 1., 0., 0., 1., 0., 255.,
          255., 252., 255., 0., 0., 0., 0., 0., 0., 0., 0., 0., 254.,
          255., 255., 255., 254., 1., 0., 2., 0., 4., 0., 2., 251., 255.,
          255., 253., 1., 0., 0., 0., 0., 0., 0., 0., 0., 3., 254., 252.,
          252., 255., 0., 5., 0., 0., 0., 0., 0., 255., 255., 255., 255.,
          0., 0., 0., 0., 0., 0., 0., 0., 0., 0., 255., 255., 255., 253.,
          1., 2., 0., 0., 1., 0., 255., 255., 254., 252., 1., 0., 0., 0.,
          0., 0., 0., 0., 0., 0., 2., 253., 254., 251., 255., 0., 0., 2.,
          0., 0., 0., 255., 252., 255., 255., 0., 0., 0., 0., 0., 0., 0.,
          0., 0., 0., 0., 255., 255., 253., 255., 2., 0., 0., 0., 0., 0.,
          255., 255., 252., 255., 0., 1., 0., 0., 0., 0., 0., 0., 0., 0.,
          0., 255., 255., 255., 254., 0., 4., 0., 0., 0., 2., 252., 254.,
          255., 255., 0., 0., 0., 0., 0., 0., 0., 0., 0., 0., 1., 255.,
          255., 251., 255., 255., 0., 2., 0., 0., 0., 255., 255., 255.,
          254., 2., 0., 0., 0., 0., 0., 0., 0., 0., 0., 0., 254., 255.,
          255., 255., 254., 1., 0., 0., 0., 0., 255., 255., 255., 255.,
          0., 0., 0., 0., 0., 0., 0., 0., 0., 0., 0., 255., 255., 254.,
          255., 255., 1., 0., 0., 0., 0., 255., 255., 255., 255., 0., 0.,
          0., 0., 0., 0., 0., 0., 0., 0., 0., 255., 255., 255., 252.,
          255., 0., 0., 0., 0., 0., 255., 255., 255., 255., 0., 0., 0.,
          0., 0., 0., 0., 0., 0., 0., 0., 255., 254., 255., 254., 255.,
          0., 4., 0., 0., 0., 255., 255., 255., 255., 0., 0., 0., 0., 0.,
          0., 0., 0., 0., 0., 3., 253., 255., 255., 255., 255., 0., 0.,
          0., 0., 0., 255., 255., 255., 255., 0., 0., 0., 0., 0., 0., 0.,
          0., 0., 0., 1., 252., 255., 254., 252., 254., 3., 0., 0., 0.,
          0., 255., 255., 255., 255., 0., 0., 0., 0., 0., 0., 0., 0., 0.,
          0., 0., 255., 255., 255., 255., 255., 0., 1., 0., 0., 0., 255.,
          255., 255., 255., 0., 0., 0., 0., 0., 0., 0., 0., 0., 0., 0.,
          255., 255., 252., 253., 254., 3., 0., 0., 0., 0., 255., 255.,
          255., 255., 0., 0., 0., 0., 0., 0., 0., 0., 0., 0., 0., 255.,
          254., 255., 255., 0., 0., 0., 0., 0., 1., 252., 255., 255.,
          254., 255., 0., 0., 0., 0., 0., 0., 0., 0., 0., 1., 253., 255.,
          255., 253., 0., 1., 0., 0., 0., 2., 0., 255., 253., 255., 254.,
          0., 1., 1., 0., 0., 0., 4., 0., 1., 0., 255., 254., 255., 255.,
          0., 0., 1., 0., 0., 1., 0., 255., 255., 253., 255., 3., 0., 1.,
          0., 0., 0., 0., 0., 0., 0., 255., 251., 255., 253., 4., 0., 1.,
          0., 3., 0., 0., 255., 252., 255., 255., 0., 0., 0., 0., 2., 2.,
          1., 3., 0., 0., 255., 255., 255., 254., 3., 2., 0., 0., 0., 0.,
          1., 254., 255., 253., 255., 2., 4., 0., 2., 0., 0., 1., 0., 0.,
          255., 253., 255., 255., 0., 0., 0., 0., 0., 1., 0., 3., 0.,
          255., 254., 253., 255., 0., 2., 0., 1., 3., 0., 1., 0., 255.,
          255., 253., 253., 2., 4., 0., 3., 0., 1., 1., 1., 1., 249.,
          255., 255., 255., 255., 0., 0., 0., 0., 255., 255., 255., 255.,
          255., 253., 255., 0., 0., 0., 1., 0., 0., 1., 0., 0., 4., 253.,
          255., 253., 255., 251., 255., 253., 255., 255., 254., 255.,
          254., 255., 255., 0., 2., 1., 0., 0., 0., 0., 3., 0., 0., 0.,
          255., 254., 255., 255., 255., 255., 255., 255., 255., 255.,
          255., 255., 255., 0., 0., 1., 0., 0., 1., 0., 2., 0., 0., 1.,
          0., 0., 1., 1., 255., 255., 255., 255., 255., 255., 255., 255.,
          0., 0., 0., 7., 0., 0., 2., 0., 0., 0., 4., 0., 1., 0., 0., 0.,
          1., 0., 0., 0., 0., 0., 0., 0., 0., 2., 1., 0., 0., 1., 0., 1.,
          0., 0., 3., 0., 0., 2., 0., 1., 2., 0., 0., 0., 0., 0., 0., 0.,
          0., 0., 0., 0., 1., 0., 0., 2., 0., 1., 0., 0., 3., 2., 1., 0.,
          2., 0., 0., 0., 0., 0., 0., 0., 0., 0., 0., 2., 2., 3., 0., 2.,
          0., 0., 1., 0. ]
   responses: !!opencv-matrix
      rows: 1
      cols: 1
      dt: f
      data: [ 0. ]
