%YAML:1.0
---
opencv_ml_knn:
   format: 3
   is_classifier: 1
   default_k: 10
   samples: !!opencv-matrix
      rows: 11
      cols: 962
      dt: f
      data: [ 0., 0., 0., 1., 1., 1., 1., 0., 0., 0., 0., 0., 1., 1., 0.,
          0., 1., 1., 0., 0., 0., 0., 0., 0., 0., 0., 0., 1., 0., 0., 0.,
          1., 0., 0., 1., 0., 0., 0., 1., 2., 0., 0., 1., 1., 1., 0., 1.,
          1., 0., 0., 1., 1., 0., 103., 108., 3., 1., 0., 0., 0., 1., 1.,
          0., 0., 0., 0., 1., 2., 0., 1., 2., 0., 0., 0., 0., 0., 0., 0.,
          1., 2., 1., 9., 15., 15., 157., 255., 254., 254., 255., 255.,
          255., 255., 255., 255., 255., 255., 255., 255., 242., 80., 9.,
          0., 0., 0., 0., 0., 0., 0., 2., 1., 0., 1., 0., 0., 1., 1.,
          27., 109., 196., 253., 253., 254., 254., 254., 255., 254.,
          253., 254., 254., 254., 254., 254., 254., 254., 254., 254.,
          254., 201., 113., 30., 1., 2., 3., 2., 1., 0., 0., 0., 0., 2.,
          4., 1., 0., 55., 227., 255., 255., 255., 253., 252., 255.,
          111., 25., 26., 25., 25., 27., 25., 105., 253., 254., 254.,
          255., 255., 255., 253., 236., 131., 2., 1., 0., 1., 0., 0., 0.,
          1., 0., 0., 0., 138., 255., 255., 254., 253., 254., 205., 125.,
          9., 0., 0., 0., 0., 0., 0., 0., 0., 1., 0., 96., 255., 255.,
          255., 255., 254., 180., 75., 18., 0., 0., 1., 1., 0., 3., 1.,
          0., 1., 137., 253., 255., 255., 254., 253., 103., 1., 0., 0.,
          0., 0., 0., 0., 0., 0., 0., 0., 0., 25., 76., 203., 254., 253.,
          253., 253., 227., 55., 2., 3., 1., 0., 0., 0., 0., 8., 38.,
          158., 255., 255., 254., 244., 214., 85., 0., 0., 0., 0., 0.,
          0., 0., 0., 0., 0., 0., 0., 0., 14., 186., 255., 255., 254.,
          254., 226., 55., 1., 1., 1., 0., 0., 0., 0., 48., 220., 254.,
          253., 254., 254., 192., 21., 0., 0., 0., 0., 0., 0., 0., 0.,
          0., 0., 0., 0., 0., 0., 14., 185., 254., 254., 253., 253.,
          227., 56., 1., 0., 1., 0., 0., 0., 0., 48., 220., 255., 254.,
          252., 254., 193., 21., 1., 1., 0., 0., 0., 0., 0., 0., 0., 0.,
          0., 0., 0., 0., 14., 186., 255., 255., 255., 254., 227., 59.,
          4., 3., 1., 0., 0., 0., 1., 49., 219., 254., 255., 255., 255.,
          193., 21., 0., 0., 0., 0., 0., 0., 0., 0., 0., 0., 0., 0., 0.,
          0., 14., 186., 255., 255., 253., 254., 255., 254., 138., 0.,
          1., 1., 0., 0., 0., 48., 220., 255., 255., 255., 255., 193.,
          21., 0., 0., 0., 0., 0., 0., 0., 0., 0., 0., 0., 0., 0., 0.,
          14., 186., 255., 255., 254., 254., 255., 255., 138., 1., 0.,
          0., 0., 0., 0., 48., 220., 255., 255., 255., 255., 193., 20.,
          0., 0., 0., 0., 0., 0., 0., 0., 0., 0., 0., 0., 0., 0., 14.,
          186., 255., 255., 255., 254., 253., 254., 138., 0., 1., 1., 0.,
          0., 0., 48., 220., 255., 255., 255., 255., 193., 20., 0., 0.,
          0., 0., 0., 0., 0., 0., 0., 0., 0., 0., 0., 1., 16., 185.,
          254., 255., 255., 255., 255., 255., 138., 0., 1., 1., 0., 0.,
          0., 48., 220., 255., 255., 255., 255., 193., 21., 0., 0., 0.,
          0., 0., 0., 0., 0., 0., 0., 0., 0., 0., 0., 14., 184., 253.,
          255., 254., 253., 252., 254., 138., 2., 0., 0., 0., 0., 0.,
          48., 220., 255., 255., 255., 255., 193., 21., 0., 0., 0., 0.,
          0., 0., 0., 0., 0., 0., 0., 0., 0., 0., 14., 186., 255., 255.,
          254., 254., 254., 254., 138., 1., 1., 0., 0., 0., 0., 48.,
          220., 255., 255., 255., 255., 193., 21., 0., 0., 0., 0., 0.,
          0., 0., 0., 0., 0., 0., 0., 0., 0., 14., 186., 254., 254.,
          255., 255., 228., 59., 3., 0., 0., 0., 0., 0., 1., 29., 130.,
          207., 255., 254., 254., 254., 254., 103., 0., 0., 0., 0., 0.,
          0., 0., 0., 1., 1., 0., 0., 0., 14., 185., 254., 255., 255.,
          254., 226., 55., 0., 1., 0., 0., 0., 0., 0., 1., 0., 138.,
          255., 255., 254., 254., 255., 105., 2., 0., 1., 1., 0., 0., 0.,
          0., 0., 0., 0., 0., 0., 14., 186., 254., 252., 254., 254.,
          226., 57., 2., 0., 1., 0., 0., 2., 1., 0., 0., 138., 254.,
          253., 254., 255., 255., 104., 1., 1., 0., 0., 0., 1., 2., 2.,
          1., 1., 2., 1., 24., 74., 203., 255., 255., 255., 227., 170.,
          43., 2., 1., 0., 0., 0., 1., 0., 0., 2., 46., 120., 236., 254.,
          253., 254., 205., 126., 11., 1., 1., 1., 0., 1., 2., 1., 0.,
          1., 0., 96., 255., 254., 254., 253., 253., 144., 1., 2., 1.,
          0., 2., 1., 0., 1., 1., 1., 1., 1., 49., 201., 242., 255.,
          255., 255., 255., 255., 111., 24., 25., 24., 24., 25., 180.,
          255., 255., 255., 255., 255., 255., 254., 251., 236., 131., 0.,
          0., 0., 0., 1., 0., 0., 0., 1., 2., 0., 0., 0., 2., 145., 254.,
          254., 254., 254., 255., 254., 254., 255., 254., 254., 255.,
          255., 255., 254., 255., 255., 254., 255., 201., 113., 30., 0.,
          1., 1., 0., 0., 0., 0., 0., 2., 1., 0., 0., 1., 1., 0., 8.,
          15., 15., 15., 80., 242., 255., 255., 255., 255., 255., 255.,
          255., 255., 255., 255., 164., 15., 15., 9., 1., 5., 4., 0., 0.,
          1., 2., 0., 0., 0., 1., 2., 2., 0., 1., 1., 0., 0., 0., 1., 1.,
          0., 0., 0., 0., 0., 0., 0., 0., 0., 0., 0., 0., 0., 1., 1., 0.,
          0., 0., 0., 1., 1., 1., 1., 0., 0., 0., 1., 1., 2., 2., 1., 1.,
          0., 1., 1., 0., 0., 0., 0., 0., 0., 0., 0., 0., 0., 0., 0., 0.,
          0., 1., 2., 2., 2., 2., 1., 1., 1., 1., 0., 0., 1., 0., 0., 1.,
          1., 1., 1., 0., 0., 0., 0., 0., 0., 0., 1., 2., 2., 1., 0., 1.,
          1., 0., 0., 1., 3., 3., 1., 0., 0., 1., 0., 0., 0., 1., 1., 0.,
          0., 0., 1., 1., 1., 0., 1., 1., 1., 1., 1., 1., 1., 1., 1., 1.,
          1., 0., 0., 0., 0., 8., 59., 110., 118., 117., 118., 118.,
          118., 118., 118., 118., 118., 88., 37., 0., 0., 0., 0., 0., 1.,
          0., 0., 0., 0., 0., 0., 0., 0., 0., 1., 2., 2., 3., 2., 1.,
          40., 125., 200., 225., 250., 254., 254., 254., 254., 253.,
          254., 254., 254., 255., 189., 79., 0., 0., 0., 0., 0., 0., 0.,
          0., 1., 1., 1., 1., 1., 1., 4., 12., 20., 20., 20., 99., 201.,
          254., 254., 253., 254., 255., 255., 255., 255., 255., 255.,
          255., 255., 255., 255., 189., 79., 0., 1., 2., 1., 0., 0., 0.,
          0., 1., 1., 1., 1., 31., 73., 125., 193., 254., 255., 255.,
          254., 252., 252., 254., 255., 254., 254., 254., 254., 254.,
          254., 255., 254., 254., 254., 254., 189., 79., 0., 0., 0., 0.,
          1., 1., 1., 1., 0., 2., 79., 155., 201., 234., 254., 255.,
          254., 254., 253., 253., 253., 254., 253., 254., 254., 254.,
          254., 254., 254., 255., 255., 255., 255., 254., 253., 188.,
          79., 1., 0., 0., 0., 1., 1., 0., 0., 1., 5., 114., 223., 254.,
          255., 255., 254., 253., 254., 255., 255., 255., 203., 93., 0.,
          0., 0., 93., 203., 255., 255., 255., 254., 254., 254., 255.,
          190., 79., 0., 0., 0., 0., 0., 0., 1., 1., 0., 3., 113., 222.,
          253., 253., 240., 207., 177., 176., 176., 116., 40., 0., 1.,
          1., 0., 0., 93., 203., 255., 255., 255., 254., 254., 254.,
          255., 189., 79., 0., 0., 0., 0., 0., 0., 0., 0., 0., 1., 44.,
          86., 98., 98., 81., 39., 1., 1., 0., 0., 0., 0., 1., 1., 1.,
          0., 93., 203., 255., 255., 255., 254., 254., 254., 255., 189.,
          79., 0., 0., 0., 0., 0., 0., 0., 0., 0., 0., 0., 0., 0., 0.,
          0., 0., 0., 0., 0., 2., 4., 4., 2., 0., 0., 0., 93., 203.,
          255., 255., 255., 254., 254., 254., 255., 189., 79., 0., 0.,
          0., 0., 0., 0., 0., 0., 0., 0., 1., 1., 2., 2., 2., 1., 0., 1.,
          2., 2., 1., 0., 0., 1., 0., 0., 93., 203., 255., 255., 255.,
          254., 254., 254., 255., 189., 79., 0., 0., 0., 0., 0., 0., 1.,
          1., 1., 1., 0., 0., 0., 0., 1., 1., 1., 1., 0., 0., 0., 0., 0.,
          0., 0., 0., 93., 203., 255., 255., 255., 254., 254., 254.,
          255., 189., 79., 0., 0., 0., 0., 0., 0., 0., 0., 0., 0., 0.,
          0., 0., 0., 0., 0., 0., 0., 0., 0., 0., 0., 0., 0., 0., 0.,
          93., 203., 255., 255., 255., 254., 254., 254., 255., 189., 79.,
          0., 0., 0., 0., 0., 0., 0., 0., 0., 0., 0., 0., 0., 0., 0., 0.,
          0., 0., 0., 0., 0., 0., 0., 0., 0., 0., 93., 203., 255., 255.,
          255., 254., 254., 254., 255., 189., 79., 0., 0., 0., 0., 0.,
          0., 0., 0., 0., 0., 0., 0., 0., 0., 0., 0., 0., 0., 0., 0., 0.,
          0., 0., 0., 0., 0., 93., 203., 255., 255., 255., 254., 254.,
          254., 255., 189., 79., 0., 0., 0., 0., 0., 0., 0., 0., 0., 0.,
          0., 0., 0., 0., 0., 0., 0., 0., 0., 0., 0., 0., 0., 0., 0., 0.,
          93., 203., 255., 255., 255., 254., 254., 254., 255., 189., 79.,
          0., 0., 0., 0., 0., 0., 0., 0., 0., 0., 0., 0., 0., 0., 0., 0.,
          0., 0., 0., 0., 0., 0., 0., 0., 0., 0., 93., 203., 255., 255.,
          255., 254., 254., 254., 255., 189., 79., 0., 0., 0., 0., 0.,
          0., 0., 0., 0., 0., 0., 0., 0., 0., 0., 0., 0., 0., 0., 0., 0.,
          0., 0., 0., 0., 0., 93., 203., 255., 255., 255., 254., 254.,
          254., 255., 189., 79., 0., 0., 0., 0., 0., 0., 0., 0., 0., 0.,
          0., 0., 0., 0., 0., 0., 0., 0., 0., 0., 0., 0., 0., 0., 0., 0.,
          93., 203., 254., 254., 254., 254., 254., 255., 254., 189., 79.,
          1., 0., 0., 0., 0., 0., 0., 0., 0., 0., 0., 0., 0., 0., 0., 0.,
          0., 0., 0., 0., 0., 0., 0., 0., 0., 0., 93., 203., 255., 254.,
          254., 253., 253., 254., 255., 190., 79., 0., 2., 3., 2., 0.,
          0., 0., 0., 0., 0., 0., 0., 0., 0., 0., 0., 0., 0., 0., 0., 0.,
          0., 0., 0., 0., 0., 93., 203., 255., 255., 255., 254., 253.,
          254., 255., 189., 79., 0., 0., 0., 0., 0., 0., 0., 0., 0., 0.,
          0., 0., 0., 0., 0., 0., 0., 0., 0., 0., 0., 0., 0., 0., 0., 0.,
          93., 203., 255., 255., 255., 254., 253., 254., 255., 190., 80.,
          0., 0., 0., 0., 0., 0., 0., 0., 0., 0., 0., 0., 0., 0., 0., 0.,
          0., 0., 0., 0., 0., 0., 0., 0., 1., 3., 9., 16., 74., 175.,
          255., 255., 255., 253., 250., 186., 78., 1., 1., 1., 2., 2.,
          3., 0., 0., 0., 0., 0., 0., 0., 0., 0., 0., 0., 0., 0., 0., 0.,
          0., 0., 0., 0., 0., 1., 2., 47., 131., 196., 196., 196., 196.,
          196., 146., 61., 0., 0., 0., 0., 0., 0., 0., 0., 0., 0., 0.,
          0., 0., 0., 0., 0., 0., 0., 0., 0., 0., 0., 0., 0., 0., 0., 0.,
          0., 0., 0., 0., 0., 0., 0., 0., 0., 0., 0., 0., 0., 0., 0., 0.,
          0., 0., 0., 0., 0., 0., 0., 0., 0., 0., 0., 0., 0., 0., 0., 0.,
          0., 0., 0., 0., 0., 0., 0., 0., 0., 0., 0., 0., 0., 0., 0., 0.,
          0., 0., 0., 0., 0., 1., 1., 1., 1., 1., 1., 1., 1., 0., 0., 1.,
          0., 0., 0., 0., 0., 1., 1., 2., 1., 0., 0., 0., 1., 0., 0., 0.,
          1., 1., 1., 0., 0., 1., 1., 0., 0., 1., 0., 1., 3., 1., 1., 2.,
          2., 1., 1., 60., 147., 147., 147., 146., 146., 147., 147.,
          147., 148., 147., 147., 147., 76., 0., 0., 1., 1., 1., 1., 1.,
          1., 0., 1., 1., 0., 1., 1., 2., 1., 0., 3., 3., 0., 131., 244.,
          245., 248., 253., 254., 255., 255., 254., 254., 255., 255.,
          255., 253., 252., 254., 250., 245., 245., 159., 7., 0., 0., 1.,
          1., 0., 0., 0., 1., 0., 0., 0., 0., 0., 0., 76., 234., 255.,
          255., 255., 254., 254., 253., 253., 254., 209., 167., 167.,
          167., 167., 167., 188., 243., 254., 254., 254., 254., 254.,
          254., 200., 41., 0., 1., 2., 2., 0., 0., 0., 3., 2., 0., 0.,
          76., 234., 254., 254., 254., 179., 68., 70., 70., 69., 34., 1.,
          2., 1., 0., 0., 18., 63., 70., 88., 204., 254., 254., 253.,
          238., 197., 102., 2., 2., 1., 0., 0., 0., 0., 0., 0., 1., 1.,
          0., 1., 1., 0., 0., 0., 0., 0., 1., 0., 0., 0., 0., 0., 1., 1.,
          0., 0., 28., 186., 255., 255., 255., 255., 255., 151., 27., 9.,
          1., 2., 1., 1., 0., 0., 0., 0., 0., 0., 0., 0., 0., 0., 0., 0.,
          0., 0., 0., 1., 2., 1., 0., 0., 0., 0., 1., 15., 93., 171.,
          250., 254., 255., 255., 255., 234., 76., 1., 0., 1., 2., 0.,
          0., 0., 0., 0., 0., 0., 0., 0., 0., 0., 0., 0., 0., 0., 1., 3.,
          3., 0., 1., 1., 0., 0., 0., 0., 90., 248., 255., 254., 252.,
          253., 234., 76., 0., 0., 3., 4., 0., 0., 0., 0., 0., 0., 0.,
          0., 0., 0., 0., 0., 0., 0., 2., 3., 1., 1., 1., 0., 1., 3., 2.,
          27., 186., 255., 254., 254., 254., 254., 223., 171., 56., 0.,
          0., 0., 1., 0., 0., 0., 0., 0., 0., 0., 0., 0., 0., 0., 0., 0.,
          1., 0., 0., 1., 1., 1., 0., 0., 1., 81., 176., 231., 255.,
          255., 254., 254., 254., 138., 1., 1., 1., 0., 1., 1., 0., 0.,
          0., 0., 0., 0., 0., 0., 0., 0., 0., 0., 1., 2., 1., 0., 0., 1.,
          4., 9., 70., 220., 253., 253., 254., 254., 255., 255., 253.,
          247., 133., 0., 0., 0., 1., 2., 2., 0., 0., 0., 0., 0., 0., 0.,
          0., 0., 0., 0., 0., 0., 0., 0., 1., 1., 41., 108., 199., 254.,
          254., 255., 255., 255., 254., 254., 191., 116., 24., 0., 1.,
          1., 1., 0., 0., 0., 0., 0., 0., 0., 0., 0., 0., 1., 1., 0., 0.,
          1., 1., 1., 0., 28., 156., 224., 255., 255., 255., 255., 255.,
          255., 255., 183., 55., 21., 1., 0., 0., 0., 0., 1., 1., 2., 2.,
          1., 1., 2., 1., 1., 2., 1., 0., 0., 0., 2., 32., 105., 233.,
          255., 254., 254., 254., 255., 253., 253., 254., 230., 183.,
          56., 0., 0., 0., 0., 0., 1., 3., 1., 0., 0., 1., 2., 1., 1.,
          0., 2., 3., 2., 1., 0., 0., 60., 150., 217., 254., 255., 254.,
          254., 254., 254., 254., 164., 109., 108., 56., 1., 1., 0., 0.,
          0., 1., 1., 1., 1., 1., 0., 0., 0., 0., 0., 1., 2., 1., 0., 0.,
          1., 41., 192., 248., 253., 254., 255., 254., 254., 255., 255.,
          162., 10., 4., 1., 2., 1., 1., 4., 4., 2., 1., 1., 1., 1., 0.,
          0., 0., 1., 0., 0., 0., 0., 1., 0., 1., 2., 138., 254., 255.,
          255., 255., 255., 255., 255., 209., 144., 41., 0., 1., 1., 1.,
          0., 1., 1., 0., 0., 0., 1., 2., 0., 0., 0., 1., 1., 0., 2., 3.,
          0., 0., 0., 0., 55., 172., 223., 254., 254., 254., 255., 255.,
          205., 89., 34., 0., 0., 1., 3., 1., 0., 0., 1., 2., 1., 0., 0.,
          0., 1., 1., 1., 0., 0., 0., 1., 0., 0., 1., 1., 1., 0., 76.,
          234., 254., 254., 253., 254., 248., 90., 0., 0., 1., 2., 0.,
          0., 1., 0., 0., 1., 0., 0., 0., 1., 3., 1., 0., 1., 1., 0., 1.,
          1., 0., 1., 2., 0., 0., 0., 1., 76., 233., 253., 254., 255.,
          254., 246., 89., 1., 1., 0., 0., 0., 1., 1., 1., 1., 0., 1.,
          2., 1., 0., 0., 1., 1., 0., 1., 1., 0., 0., 0., 0., 0., 3., 1.,
          12., 152., 234., 252., 255., 254., 252., 253., 248., 89., 0.,
          0., 1., 2., 1., 0., 0., 1., 2., 1., 0., 0., 1., 1., 1., 1., 1.,
          0., 0., 1., 2., 2., 0., 0., 0., 1., 0., 14., 172., 254., 253.,
          253., 253., 254., 255., 254., 255., 255., 255., 254., 229.,
          114., 69., 68., 68., 69., 69., 68., 68., 69., 69., 69., 69.,
          69., 68., 37., 1., 1., 1., 0., 2., 3., 0., 0., 14., 172., 254.,
          254., 254., 255., 255., 254., 254., 254., 254., 254., 254.,
          254., 254., 254., 254., 254., 254., 254., 254., 254., 254.,
          255., 255., 254., 254., 254., 138., 1., 1., 1., 0., 1., 2., 0.,
          1., 2., 1., 73., 225., 245., 245., 245., 244., 242., 244.,
          245., 245., 245., 245., 245., 245., 245., 245., 245., 245.,
          245., 245., 245., 245., 245., 100., 1., 0., 0., 0., 1., 1., 0.,
          0., 0., 0., 0., 0., 1., 1., 0., 0., 0., 1., 1., 1., 1., 1., 0.,
          0., 0., 0., 0., 0., 0., 0., 0., 0., 0., 0., 0., 1., 1., 0., 0.,
          1., 2., 1., 0., 1., 1., 2., 3., 2., 0., 0., 0., 1., 0., 0., 1.,
          3., 4., 1., 0., 0., 0., 0., 0., 0., 0., 0., 0., 0., 0., 0., 0.,
          0., 1., 1., 1., 1., 1., 1., 1., 1., 0., 0., 0., 1., 0., 0., 1.,
          2., 2., 1., 1., 1., 2., 2., 0., 0., 1., 0., 0., 0., 0., 1., 1.,
          1., 1., 1., 0., 0., 0., 1., 1., 0., 0., 0., 1., 0., 0., 0., 0.,
          1., 1., 1., 1., 1., 56., 132., 132., 132., 132., 132., 131.,
          132., 131., 131., 132., 132., 132., 132., 133., 133., 131.,
          132., 134., 132., 132., 133., 132., 132., 132., 49., 0., 0.,
          0., 0., 2., 1., 0., 2., 2., 28., 170., 234., 253., 254., 254.,
          253., 254., 255., 255., 255., 254., 253., 254., 255., 255.,
          255., 255., 254., 255., 255., 255., 255., 254., 255., 255.,
          255., 93., 1., 2., 2., 1., 0., 0., 0., 1., 0., 0., 0., 84.,
          201., 201., 201., 200., 201., 201., 200., 199., 199., 201.,
          201., 201., 200., 201., 209., 244., 255., 255., 254., 254.,
          254., 255., 254., 253., 94., 2., 0., 0., 0., 1., 1., 1., 2.,
          1., 0., 1., 1., 0., 0., 0., 0., 0., 0., 1., 1., 1., 1., 1., 1.,
          0., 1., 39., 203., 254., 253., 254., 254., 253., 254., 255.,
          255., 93., 0., 0., 1., 1., 1., 1., 0., 1., 0., 0., 0., 1., 2.,
          1., 1., 0., 1., 1., 0., 1., 1., 0., 0., 1., 2., 115., 233.,
          250., 255., 255., 254., 254., 254., 254., 177., 29., 10., 1.,
          0., 1., 1., 0., 1., 2., 0., 0., 1., 1., 1., 1., 0., 0., 0., 1.,
          2., 0., 0., 1., 1., 0., 52., 217., 255., 255., 255., 255.,
          255., 254., 229., 183., 60., 0., 0., 1., 1., 0., 1., 1., 1.,
          0., 0., 1., 1., 1., 1., 1., 2., 2., 2., 0., 0., 0., 0., 0., 1.,
          1., 85., 173., 240., 254., 254., 254., 255., 241., 142., 63.,
          1., 1., 1., 0., 1., 1., 0., 0., 0., 1., 1., 0., 0., 2., 3., 2.,
          1., 0., 1., 1., 0., 0., 1., 3., 1., 61., 216., 247., 254.,
          252., 253., 255., 253., 147., 15., 4., 0., 0., 1., 1., 0., 0.,
          2., 6., 3., 0., 2., 1., 0., 1., 1., 1., 0., 0., 0., 1., 0., 0.,
          1., 24., 71., 184., 255., 255., 254., 254., 254., 254., 254.,
          254., 173., 66., 19., 1., 1., 1., 1., 1., 1., 1., 0., 1., 2.,
          1., 1., 1., 1., 1., 0., 1., 1., 0., 0., 1., 2., 1., 79., 244.,
          254., 254., 254., 254., 254., 255., 254., 254., 255., 254.,
          245., 185., 161., 155., 50., 0., 1., 1., 1., 1., 0., 1., 2.,
          1., 0., 0., 1., 2., 0., 0., 0., 0., 0., 0., 0., 79., 245.,
          255., 255., 255., 253., 253., 254., 254., 254., 253., 254.,
          255., 255., 255., 255., 251., 165., 3., 1., 1., 0., 1., 1., 0.,
          1., 1., 0., 0., 0., 0., 0., 0., 0., 0., 0., 0., 0., 0., 0., 0.,
          1., 0., 35., 147., 172., 172., 172., 209., 254., 254., 254.,
          255., 254., 254., 253., 145., 61., 8., 1., 0., 0., 0., 1., 0.,
          0., 0., 0., 0., 0., 0., 0., 0., 0., 0., 0., 0., 1., 2., 1., 0.,
          1., 1., 1., 1., 37., 83., 83., 150., 255., 254., 254., 255.,
          254., 182., 17., 2., 3., 1., 0., 1., 0., 0., 0., 0., 0., 0.,
          0., 0., 0., 0., 0., 0., 0., 0., 0., 1., 2., 0., 0., 0., 2., 1.,
          0., 2., 102., 255., 254., 254., 254., 255., 184., 23., 2., 0.,
          0., 0., 0., 0., 0., 0., 0., 0., 0., 0., 0., 0., 0., 0., 0., 0.,
          0., 0., 0., 1., 3., 2., 0., 0., 0., 0., 1., 64., 166., 226.,
          255., 255., 255., 255., 255., 107., 1., 1., 0., 0., 0., 0., 0.,
          0., 0., 0., 0., 0., 0., 0., 0., 0., 0., 0., 0., 0., 0., 0., 0.,
          0., 1., 1., 1., 1., 1., 10., 175., 254., 255., 253., 253.,
          255., 107., 1., 1., 0., 0., 0., 0., 0., 0., 0., 0., 0., 0., 0.,
          0., 0., 0., 0., 0., 1., 2., 2., 0., 0., 0., 1., 1., 0., 2.,
          102., 255., 254., 254., 254., 254., 251., 241., 101., 0., 0.,
          0., 0., 0., 1., 1., 1., 0., 1., 0., 0., 0., 1., 1., 1., 1., 0.,
          1., 1., 1., 0., 0., 1., 1., 1., 10., 77., 163., 255., 254.,
          254., 255., 254., 182., 17., 0., 0., 0., 0., 1., 0., 0., 1.,
          1., 0., 0., 1., 1., 0., 0., 1., 2., 1., 0., 0., 0., 0., 0., 2.,
          3., 2., 1., 24., 189., 254., 252., 254., 255., 255., 255.,
          183., 21., 2., 0., 0., 0., 1., 1., 1., 31., 196., 254., 239.,
          90., 25., 26., 26., 18., 2., 0., 7., 24., 26., 26., 25., 24.,
          24., 24., 127., 255., 253., 254., 255., 254., 246., 231., 84.,
          0., 0., 2., 3., 0., 1., 3., 1., 1., 18., 110., 189., 254.,
          253., 254., 255., 254., 210., 118., 113., 149., 240., 254.,
          254., 255., 254., 253., 254., 255., 255., 254., 254., 250.,
          175., 93., 3., 2., 2., 1., 1., 0., 1., 1., 0., 0., 1., 1., 0.,
          23., 68., 198., 254., 252., 253., 254., 255., 255., 255., 255.,
          254., 253., 254., 254., 253., 253., 253., 235., 107., 55., 52.,
          18., 1., 0., 0., 1., 1., 1., 1., 0., 0., 0., 1., 0., 0., 0.,
          0., 0., 0., 1., 3., 1., 0., 0., 134., 220., 218., 219., 176.,
          33., 0., 0., 1., 1., 0., 0., 0., 0., 0., 0., 0., 0., 0., 0.,
          0., 0., 1., 0., 0., 0., 0., 0., 0., 0., 0., 0., 0., 0., 0., 0.,
          0., 0., 0., 0., 0., 0., 0., 0., 0., 0., 0., 0., 0., 0., 0., 0.,
          0., 0., 0., 0., 0., 0., 0., 0., 0., 0., 0., 0., 0., 0., 0., 0.,
          0., 0., 0., 0., 0., 0., 0., 0., 0., 0., 0., 0., 0., 0., 0., 0.,
          0., 0., 0., 0., 0., 0., 0., 0., 0., 0., 0., 0., 0., 0., 0., 1.,
          1., 1., 1., 1., 0., 0., 0., 0., 1., 3., 1., 0., 0., 0., 1., 1.,
          1., 0., 0., 0., 1., 1., 0., 0., 0., 0., 0., 0., 0., 0., 0., 0.,
          0., 0., 0., 0., 1., 2., 3., 1., 1., 1., 1., 0., 0., 1., 1., 1.,
          1., 1., 1., 17., 89., 117., 118., 118., 89., 16., 0., 0., 1.,
          1., 0., 0., 0., 0., 0., 0., 0., 0., 0., 0., 0., 2., 1., 0., 0.,
          0., 0., 1., 1., 0., 0., 0., 0., 0., 0., 101., 204., 240., 254.,
          253., 254., 193., 34., 0., 1., 1., 0., 0., 0., 0., 0., 0., 0.,
          0., 0., 0., 0., 0., 0., 0., 0., 0., 0., 1., 0., 1., 1., 1., 1.,
          1., 7., 20., 140., 252., 254., 255., 255., 96., 0., 0., 0., 0.,
          0., 0., 0., 0., 0., 0., 0., 0., 0., 0., 0., 0., 0., 0., 1., 2.,
          1., 0., 0., 1., 2., 1., 0., 0., 0., 69., 226., 254., 255.,
          254., 217., 156., 59., 1., 3., 2., 0., 0., 0., 0., 0., 0., 0.,
          0., 0., 0., 0., 0., 0., 0., 1., 1., 1., 1., 0., 1., 1., 0., 0.,
          0., 6., 115., 198., 246., 254., 255., 255., 159., 1., 1., 0.,
          1., 1., 1., 0., 0., 0., 0., 0., 0., 0., 0., 0., 0., 0., 0., 0.,
          0., 0., 1., 0., 0., 0., 1., 1., 0., 1., 9., 166., 255., 255.,
          254., 254., 255., 159., 1., 0., 0., 0., 0., 1., 0., 0., 0., 0.,
          0., 0., 0., 0., 0., 0., 0., 0., 0., 0., 0., 0., 0., 1., 3., 1.,
          0., 0., 32., 83., 192., 254., 254., 254., 220., 63., 1., 1.,
          1., 1., 0., 0., 1., 1., 1., 0., 0., 0., 0., 0., 0., 0., 0., 0.,
          0., 0., 0., 0., 0., 1., 2., 1., 1., 0., 2., 104., 252., 254.,
          255., 255., 254., 219., 62., 1., 0., 0., 1., 1., 1., 1., 1.,
          1., 0., 0., 0., 0., 0., 0., 0., 0., 0., 0., 0., 3., 2., 0., 0.,
          0., 1., 0., 38., 183., 242., 255., 255., 255., 255., 134., 17.,
          5., 1., 4., 2., 1., 0., 0., 0., 0., 0., 0., 0., 0., 0., 0., 0.,
          0., 0., 0., 0., 0., 0., 1., 1., 1., 0., 0., 32., 92., 212.,
          254., 255., 254., 238., 201., 95., 1., 0., 0., 0., 1., 1., 0.,
          0., 1., 1., 0., 0., 0., 0., 0., 0., 0., 0., 0., 0., 0., 0., 1.,
          1., 1., 1., 1., 0., 137., 253., 254., 255., 255., 254., 185.,
          28., 1., 1., 1., 0., 0., 1., 35., 119., 137., 137., 137., 89.,
          4., 0., 0., 0., 0., 0., 0., 0., 0., 0., 0., 0., 1., 2., 1.,
          64., 198., 237., 255., 253., 254., 249., 115., 28., 4., 0., 0.,
          1., 1., 0., 0., 62., 220., 255., 255., 254., 164., 8., 0., 0.,
          0., 0., 0., 1., 1., 0., 0., 1., 0., 0., 2., 27., 103., 236.,
          254., 255., 255., 239., 210., 76., 1., 0., 0., 0., 0., 0., 1.,
          1., 62., 220., 253., 253., 254., 255., 255., 104., 1., 2., 1.,
          0., 0., 1., 2., 1., 0., 1., 1., 15., 172., 253., 253., 254.,
          255., 254., 151., 0., 1., 1., 1., 1., 1., 0., 1., 3., 1., 62.,
          219., 254., 254., 254., 254., 254., 103., 0., 0., 1., 1., 1.,
          1., 0., 0., 0., 0., 0., 14., 172., 254., 254., 255., 255.,
          254., 151., 1., 1., 1., 0., 0., 1., 0., 0., 0., 0., 63., 220.,
          254., 254., 254., 255., 255., 103., 0., 1., 1., 1., 0., 0., 1.,
          1., 2., 3., 2., 14., 171., 254., 255., 252., 251., 254., 255.,
          255., 255., 255., 254., 254., 255., 253., 254., 255., 255.,
          254., 253., 253., 253., 254., 254., 253., 254., 254., 253.,
          253., 234., 78., 2., 0., 1., 1., 0., 0., 15., 172., 255., 255.,
          255., 254., 254., 253., 252., 254., 254., 255., 255., 254.,
          254., 254., 253., 254., 254., 253., 254., 254., 254., 254.,
          255., 255., 255., 255., 255., 234., 75., 0., 1., 1., 0., 1.,
          0., 5., 53., 78., 80., 79., 78., 78., 78., 84., 193., 254.,
          255., 255., 255., 255., 254., 252., 254., 255., 255., 254.,
          253., 254., 192., 83., 78., 78., 78., 79., 73., 24., 0., 0.,
          0., 0., 0., 1., 3., 2., 1., 0., 0., 0., 0., 0., 1., 1., 1., 0.,
          1., 2., 1., 1., 2., 1., 61., 218., 253., 255., 254., 165., 7.,
          0., 0., 0., 1., 2., 1., 0., 0., 3., 5., 0., 1., 1., 0., 0., 0.,
          1., 2., 1., 0., 0., 0., 0., 1., 1., 1., 0., 0., 0., 0., 62.,
          220., 254., 254., 252., 191., 83., 32., 1., 1., 1., 0., 1., 1.,
          0., 0., 0., 1., 1., 0., 0., 0., 0., 1., 1., 1., 1., 0., 0., 0.,
          1., 1., 0., 1., 1., 0., 1., 62., 219., 254., 254., 254., 254.,
          254., 103., 0., 2., 2., 1., 1., 1., 1., 1., 1., 2., 1., 0., 1.,
          1., 0., 0., 0., 1., 1., 1., 2., 2., 1., 2., 2., 1., 0., 0., 0.,
          62., 220., 254., 254., 255., 255., 254., 105., 3., 1., 0., 0.,
          0., 0., 0., 0., 0., 0., 2., 4., 1., 1., 2., 1., 0., 0., 1., 2.,
          1., 0., 0., 0., 0., 0., 0., 1., 1., 1., 0., 95., 196., 195.,
          126., 6., 1., 1., 1., 1., 0., 0., 0., 1., 2., 2., 0., 0., 0.,
          0., 0., 0., 0., 0., 0., 1., 1., 0., 0., 0., 0., 1., 0., 0., 0.,
          0., 0., 0., 0., 0., 0., 0., 0., 1., 1., 0., 0., 1., 0., 0., 0.,
          0., 0., 0., 0., 0., 0., 0., 0., 0., 0., 0., 0., 0., 0., 0., 0.,
          0., 0., 0., 0., 0., 0., 0., 0., 0., 0., 0., 0., 0., 0., 0., 0.,
          0., 0., 0., 0., 0., 0., 0., 1., 1., 0., 1., 2., 1., 0., 0., 0.,
          0., 1., 1., 0., 0., 0., 0., 0., 0., 0., 0., 0., 0., 0., 0., 0.,
          0., 0., 0., 1., 1., 0., 0., 0., 1., 2., 1., 0., 2., 1., 0., 0.,
          8., 83., 133., 132., 132., 131., 132., 133., 132., 132., 132.,
          132., 132., 132., 132., 132., 132., 132., 132., 132., 132.,
          132., 132., 118., 43., 0., 0., 0., 1., 1., 1., 1., 1., 0., 1.,
          1., 1., 15., 159., 255., 254., 253., 254., 255., 255., 255.,
          255., 255., 255., 255., 255., 255., 255., 255., 255., 255.,
          255., 255., 255., 255., 251., 232., 167., 42., 0., 0., 0., 0.,
          0., 0., 1., 1., 0., 27., 66., 178., 253., 254., 255., 255.,
          253., 250., 222., 201., 201., 201., 201., 201., 201., 201.,
          201., 201., 201., 201., 201., 201., 201., 201., 201., 152.,
          38., 0., 0., 0., 1., 0., 0., 0., 0., 1., 124., 254., 253.,
          253., 254., 255., 254., 189., 110., 46., 0., 0., 0., 0., 0.,
          0., 0., 0., 0., 0., 0., 0., 0., 0., 0., 0., 0., 0., 0., 1., 1.,
          1., 1., 0., 1., 1., 0., 123., 254., 254., 255., 254., 254.,
          255., 138., 0., 0., 0., 0., 0., 0., 0., 0., 0., 0., 0., 0., 0.,
          0., 0., 0., 0., 1., 1., 0., 0., 0., 1., 2., 1., 0., 1., 1., 1.,
          124., 254., 254., 254., 255., 255., 255., 138., 0., 0., 1., 0.,
          0., 0., 0., 0., 0., 1., 0., 0., 0., 0., 0., 0., 1., 0., 0., 0.,
          0., 0., 0., 0., 0., 0., 0., 0., 1., 124., 254., 255., 255.,
          254., 254., 253., 138., 1., 1., 0., 0., 0., 1., 1., 0., 0., 1.,
          0., 0., 0., 0., 1., 1., 0., 0., 0., 0., 0., 0., 0., 0., 0., 0.,
          0., 0., 0., 124., 255., 255., 255., 255., 255., 255., 138., 0.,
          1., 1., 1., 1., 1., 1., 1., 0., 0., 0., 0., 0., 1., 2., 1., 0.,
          0., 0., 0., 0., 0., 0., 0., 0., 0., 1., 1., 0., 124., 255.,
          253., 253., 254., 255., 255., 254., 253., 254., 255., 254.,
          254., 253., 253., 253., 253., 230., 127., 74., 74., 44., 2.,
          0., 1., 0., 0., 0., 0., 0., 0., 0., 0., 0., 1., 0., 0., 124.,
          255., 255., 255., 254., 254., 254., 254., 254., 255., 255.,
          254., 254., 254., 253., 252., 254., 255., 255., 254., 252.,
          215., 164., 75., 2., 1., 0., 0., 0., 0., 0., 0., 0., 0., 0.,
          1., 2., 3., 5., 5., 6., 5., 5., 6., 6., 5., 5., 5., 5., 79.,
          219., 254., 255., 255., 254., 251., 251., 254., 254., 253.,
          250., 221., 80., 0., 0., 0., 0., 0., 0., 0., 0., 0., 0., 0.,
          0., 0., 0., 0., 0., 0., 0., 0., 0., 0., 0., 0., 0., 1., 1., 0.,
          1., 24., 120., 193., 241., 254., 254., 254., 255., 254., 192.,
          48., 1., 2., 1., 0., 0., 1., 0., 0., 0., 0., 0., 0., 0., 0.,
          0., 0., 0., 0., 0., 0., 0., 1., 2., 2., 0., 0., 1., 0., 68.,
          212., 254., 255., 255., 255., 254., 234., 187., 106., 10., 1.,
          0., 0., 0., 0., 0., 0., 0., 0., 0., 0., 0., 0., 0., 0., 0., 0.,
          0., 0., 1., 2., 2., 1., 0., 0., 0., 1., 2., 104., 247., 254.,
          255., 254., 254., 255., 159., 16., 1., 0., 0., 0., 0., 0., 0.,
          0., 0., 0., 0., 0., 0., 0., 0., 0., 0., 0., 2., 2., 1., 1., 0.,
          1., 2., 2., 1., 0., 103., 248., 255., 255., 255., 254., 253.,
          157., 14., 0., 0., 1., 2., 0., 0., 0., 0., 0., 0., 0., 0., 0.,
          0., 0., 0., 0., 0., 0., 0., 0., 0., 1., 1., 1., 1., 1., 1.,
          104., 247., 254., 254., 254., 254., 253., 157., 13., 0., 0.,
          0., 0., 0., 0., 0., 0., 0., 0., 0., 0., 0., 0., 0., 0., 0., 0.,
          0., 1., 2., 1., 0., 1., 1., 0., 4., 13., 112., 247., 254.,
          255., 255., 255., 255., 158., 14., 1., 2., 1., 0., 1., 1., 1.,
          1., 0., 0., 0., 1., 1., 0., 1., 1., 1., 0., 0., 1., 1., 1., 0.,
          0., 0., 0., 69., 214., 255., 255., 254., 254., 255., 230.,
          172., 95., 8., 1., 2., 1., 0., 1., 1., 1., 1., 2., 1., 1., 1.,
          1., 0., 1., 2., 1., 0., 1., 1., 0., 0., 0., 0., 27., 135.,
          208., 244., 253., 251., 253., 255., 254., 192., 48., 0., 0.,
          0., 0., 1., 2., 0., 1., 2., 1., 0., 0., 1., 1., 2., 1., 0., 1.,
          15., 25., 25., 25., 25., 124., 255., 254., 253., 252., 252.,
          253., 254., 255., 241., 206., 78., 3., 1., 0., 1., 2., 2., 1.,
          0., 0., 0., 1., 55., 113., 113., 113., 112., 112., 113., 113.,
          117., 197., 255., 254., 254., 255., 254., 253., 254., 254.,
          254., 224., 160., 142., 141., 65., 0., 0., 0., 0., 1., 2., 1.,
          0., 1., 1., 0., 1., 3., 125., 255., 254., 254., 254., 254.,
          255., 254., 254., 254., 254., 254., 255., 255., 255., 254.,
          140., 54., 54., 39., 9., 1., 3., 1., 0., 0., 0., 0., 0., 0.,
          0., 1., 0., 0., 0., 0., 1., 0., 12., 137., 220., 220., 220.,
          220., 220., 214., 90., 1., 0., 0., 0., 0., 1., 0., 0., 1., 1.,
          1., 1., 0., 1., 2., 1., 0., 1., 1., 0., 0., 0., 1., 1., 0., 0.,
          0., 0., 0., 0., 0., 0., 0., 0., 0., 0., 0., 0., 0., 0., 0., 0.,
          0., 0., 0., 0., 0., 0., 0., 0., 0., 0., 0., 0., 0., 0., 0., 0.,
          0., 0., 0., 0., 0., 0., 0., 0., 0., 0., 0., 0., 0., 0., 0., 0.,
          0., 0., 0., 0., 0., 0., 0., 0., 0., 0., 0., 0., 0., 0., 0., 0.,
          0., 0., 0., 0., 0., 0., 0., 0., 0., 0., 0., 0., 0., 0., 0., 0.,
          0., 0., 0., 0., 1., 1., 0., 1., 1., 0., 0., 1., 1., 0., 0., 1.,
          0., 0., 0., 0., 0., 0., 0., 0., 0., 0., 0., 0., 0., 0., 0., 0.,
          0., 0., 0., 0., 0., 0., 0., 0., 0., 0., 0., 0., 0., 0., 0., 1.,
          2., 1., 59., 132., 132., 80., 0., 0., 0., 0., 0., 0., 0., 0.,
          0., 0., 0., 0., 0., 0., 0., 0., 0., 0., 0., 0., 0., 0., 0., 0.,
          0., 1., 2., 1., 0., 0., 109., 219., 219., 235., 255., 255.,
          155., 0., 0., 0., 0., 0., 0., 0., 0., 0., 0., 0., 0., 0., 0.,
          0., 0., 0., 0., 0., 0., 0., 0., 0., 0., 1., 1., 0., 30., 94.,
          225., 255., 255., 255., 231., 182., 52., 0., 0., 0., 0., 0.,
          0., 0., 0., 0., 0., 0., 0., 0., 0., 0., 0., 0., 0., 0., 0., 0.,
          0., 0., 0., 0., 1., 38., 129., 204., 254., 254., 254., 254.,
          254., 141., 1., 0., 0., 0., 0., 0., 0., 0., 0., 0., 0., 0., 0.,
          0., 0., 0., 0., 0., 0., 0., 0., 0., 0., 0., 0., 0., 0., 140.,
          237., 252., 255., 254., 252., 253., 221., 71., 14., 0., 1., 1.,
          0., 0., 0., 0., 0., 0., 0., 0., 0., 0., 0., 0., 0., 1., 2., 0.,
          0., 1., 1., 1., 1., 1., 79., 244., 255., 255., 255., 255.,
          242., 199., 95., 1., 0., 0., 0., 0., 1., 1., 0., 0., 0., 0.,
          0., 0., 1., 1., 1., 1., 1., 1., 1., 1., 0., 1., 1., 3., 2., 2.,
          101., 184., 251., 255., 255., 254., 255., 203., 38., 0., 0.,
          0., 0., 0., 0., 0., 0., 0., 0., 0., 1., 1., 0., 1., 1., 0., 1.,
          2., 0., 1., 2., 3., 2., 0., 0., 87., 238., 249., 254., 253.,
          254., 255., 254., 121., 12., 2., 0., 0., 2., 2., 2., 0., 0.,
          0., 1., 2., 3., 1., 0., 1., 0., 0., 2., 2., 2., 1., 1., 1., 0.,
          1., 6., 53., 140., 255., 255., 255., 255., 255., 255., 254.,
          154., 74., 74., 74., 73., 73., 73., 74., 75., 47., 2., 1., 0.,
          1., 1., 0., 0., 0., 1., 1., 1., 0., 1., 1., 1., 1., 1., 17.,
          183., 255., 255., 254., 254., 254., 253., 253., 255., 253.,
          252., 254., 255., 254., 254., 254., 254., 254., 218., 162.,
          160., 106., 3., 1., 1., 2., 2., 1., 1., 1., 1., 0., 0., 1., 0.,
          105., 250., 253., 254., 255., 255., 255., 255., 255., 255.,
          254., 254., 255., 255., 254., 254., 254., 254., 255., 255.,
          255., 255., 255., 253., 249., 91., 1., 0., 0., 1., 3., 2., 0.,
          0., 0., 10., 65., 155., 254., 254., 255., 255., 254., 254.,
          255., 204., 171., 171., 77., 1., 1., 0., 0., 1., 77., 179.,
          233., 254., 255., 255., 254., 254., 255., 183., 17., 1., 1.,
          1., 1., 1., 1., 1., 31., 196., 253., 252., 254., 255., 255.,
          254., 201., 90., 34., 1., 0., 1., 1., 0., 0., 1., 1., 0., 8.,
          62., 151., 255., 255., 255., 255., 254., 230., 177., 72., 1.,
          1., 1., 1., 1., 1., 31., 196., 255., 255., 253., 253., 253.,
          250., 172., 12., 1., 1., 4., 2., 0., 0., 0., 1., 3., 2., 0.,
          1., 99., 250., 253., 254., 253., 254., 255., 255., 107., 0.,
          1., 1., 1., 0., 1., 32., 196., 254., 255., 255., 254., 250.,
          86., 1., 0., 1., 1., 0., 1., 2., 1., 1., 1., 0., 0., 1., 0.,
          0., 10., 176., 255., 255., 253., 253., 254., 106., 0., 0., 0.,
          0., 2., 1., 31., 197., 255., 254., 253., 253., 250., 87., 2.,
          0., 1., 1., 1., 1., 1., 1., 1., 1., 1., 1., 1., 0., 0., 11.,
          176., 254., 253., 253., 253., 254., 107., 0., 1., 1., 0., 0.,
          0., 31., 196., 254., 255., 255., 255., 251., 86., 1., 3., 1.,
          0., 0., 2., 2., 0., 0., 0., 0., 0., 1., 0., 0., 11., 175.,
          254., 255., 255., 254., 253., 106., 0., 1., 0., 0., 1., 1.,
          31., 195., 254., 255., 253., 254., 251., 86., 0., 1., 1., 1.,
          2., 1., 0., 1., 1., 0., 1., 1., 1., 0., 0., 11., 175., 255.,
          255., 254., 254., 254., 108., 2., 0., 0., 0., 3., 2., 31.,
          196., 254., 255., 253., 253., 254., 213., 132., 9., 1., 0., 1.,
          1., 1., 0., 1., 2., 0., 0., 1., 0., 75., 193., 235., 254.,
          252., 254., 255., 255., 108., 1., 0., 2., 3., 0., 0., 1., 3.,
          109., 254., 253., 253., 254., 254., 183., 34., 25., 19., 3.,
          0., 0., 0., 0., 1., 0., 12., 48., 196., 254., 255., 255., 255.,
          255., 238., 164., 17., 1., 1., 0., 0., 0., 0., 0., 0., 1., 60.,
          149., 222., 254., 254., 254., 254., 254., 254., 218., 126.,
          113., 113., 113., 113., 113., 113., 175., 253., 254., 254.,
          253., 254., 255., 254., 93., 0., 0., 0., 0., 0., 1., 1., 0.,
          0., 1., 0., 0., 4., 39., 54., 56., 187., 255., 255., 254.,
          254., 253., 254., 254., 253., 254., 255., 254., 254., 254.,
          253., 254., 254., 253., 186., 56., 21., 2., 0., 0., 0., 1., 0.,
          0., 0., 0., 0., 1., 1., 0., 0., 0., 0., 0., 0., 0., 134., 221.,
          221., 220., 220., 221., 221., 221., 220., 220., 221., 221.,
          134., 0., 1., 1., 1., 0., 0., 1., 0., 0., 1., 0., 0., 0., 0.,
          0., 0., 0., 0., 0., 0., 0., 0., 0., 0., 0., 0., 0., 0., 0., 0.,
          0., 0., 0., 0., 0., 0., 0., 0., 0., 0., 0., 0., 0., 0., 0., 0.,
          0., 0., 0., 0., 0., 0., 0., 0., 0., 0., 0., 0., 0., 0., 0., 0.,
          0., 0., 0., 0., 0., 0., 0., 0., 0., 0., 0., 0., 0., 0., 0., 0.,
          0., 0., 0., 0., 0., 0., 0., 0., 1., 0., 0., 0., 1., 2., 1., 0.,
          0., 1., 1., 0., 0., 0., 0., 0., 0., 0., 0., 0., 0., 0., 0., 0.,
          0., 0., 1., 1., 0., 0., 0., 0., 1., 2., 1., 1., 2., 0., 0., 1.,
          0., 0., 0., 0., 48., 133., 133., 132., 132., 132., 132., 132.,
          132., 132., 132., 132., 132., 132., 132., 132., 132., 132.,
          133., 132., 132., 133., 132., 132., 131., 55., 1., 3., 2., 1.,
          2., 1., 0., 0., 92., 221., 221., 233., 255., 255., 255., 254.,
          255., 255., 255., 255., 255., 255., 255., 255., 255., 255.,
          255., 255., 254., 253., 253., 253., 254., 255., 255., 255.,
          107., 1., 0., 0., 0., 2., 2., 26., 154., 200., 200., 200.,
          220., 254., 255., 255., 255., 255., 255., 255., 255., 255.,
          255., 255., 255., 255., 255., 255., 255., 255., 255., 254.,
          254., 255., 254., 254., 253., 107., 1., 0., 0., 0., 2., 1., 0.,
          1., 1., 1., 1., 42., 114., 113., 113., 113., 113., 113., 113.,
          113., 113., 113., 113., 113., 113., 113., 113., 113., 168.,
          255., 254., 254., 254., 254., 255., 255., 107., 0., 0., 1., 1.,
          0., 0., 1., 0., 0., 0., 1., 1., 0., 2., 2., 0., 0., 0., 0., 0.,
          0., 0., 0., 0., 0., 0., 0., 0., 100., 255., 254., 254., 255.,
          253., 187., 40., 11., 1., 0., 0., 1., 0., 0., 0., 0., 0., 0.,
          0., 0., 0., 0., 0., 0., 0., 0., 1., 1., 0., 0., 1., 1., 0., 0.,
          25., 189., 255., 255., 254., 255., 255., 215., 137., 13., 0.,
          0., 0., 1., 2., 0., 0., 0., 0., 0., 0., 0., 0., 0., 0., 0., 0.,
          0., 0., 0., 1., 1., 1., 1., 1., 0., 68., 162., 228., 254.,
          252., 254., 254., 253., 93., 0., 0., 0., 0., 2., 1., 0., 0.,
          0., 0., 0., 0., 0., 0., 0., 0., 0., 0., 0., 1., 2., 2., 1., 1.,
          3., 2., 36., 191., 246., 255., 254., 254., 255., 254., 173.,
          18., 6., 1., 0., 1., 1., 0., 0., 0., 0., 0., 0., 0., 0., 0.,
          0., 0., 0., 0., 0., 0., 1., 1., 1., 1., 1., 0., 127., 255.,
          254., 254., 254., 254., 224., 172., 56., 1., 1., 1., 1., 2.,
          1., 1., 0., 1., 2., 0., 0., 0., 0., 0., 0., 0., 0., 0., 0., 0.,
          0., 1., 2., 2., 2., 34., 138., 208., 254., 254., 254., 239.,
          135., 57., 1., 0., 0., 0., 0., 1., 2., 1., 1., 0., 1., 3., 0.,
          0., 0., 0., 0., 0., 0., 0., 0., 0., 0., 0., 1., 1., 0., 139.,
          251., 254., 255., 255., 254., 253., 229., 65., 1., 0., 0., 0.,
          0., 1., 2., 1., 0., 1., 3., 1., 0., 1., 1., 1., 1., 1., 1., 0.,
          0., 0., 2., 2., 0., 1., 22., 76., 177., 253., 254., 254., 242.,
          188., 95., 1., 0., 0., 0., 0., 0., 0., 0., 0., 0., 0., 0., 0.,
          0., 0., 1., 1., 1., 1., 1., 1., 0., 0., 1., 1., 1., 1., 1.,
          65., 231., 254., 253., 254., 254., 217., 52., 0., 0., 0., 0.,
          0., 0., 0., 0., 0., 0., 0., 0., 0., 0., 0., 0., 2., 1., 0., 0.,
          0., 0., 1., 1., 0., 0., 0., 0., 155., 255., 255., 255., 255.,
          254., 127., 0., 0., 1., 2., 0., 0., 0., 0., 0., 0., 0., 0., 0.,
          0., 0., 0., 0., 0., 0., 0., 1., 0., 0., 1., 1., 1., 1., 1., 1.,
          1., 155., 254., 252., 253., 254., 255., 128., 1., 2., 1., 0.,
          0., 0., 0., 0., 0., 0., 0., 0., 0., 0., 0., 0., 0., 0., 0., 1.,
          2., 1., 0., 0., 1., 1., 0., 0., 1., 1., 155., 254., 254., 254.,
          253., 255., 127., 0., 0., 0., 0., 1., 0., 0., 0., 0., 0., 0.,
          0., 0., 0., 0., 0., 0., 0., 1., 0., 0., 0., 1., 2., 1., 0., 0.,
          1., 80., 245., 255., 255., 255., 255., 203., 38., 0., 0., 0.,
          1., 2., 0., 0., 0., 0., 0., 0., 0., 0., 0., 0., 0., 0., 0., 0.,
          0., 0., 0., 0., 0., 0., 0., 0., 0., 0., 79., 245., 254., 254.,
          255., 255., 203., 38., 0., 0., 0., 0., 0., 0., 0., 0., 0., 0.,
          0., 0., 0., 0., 0., 0., 0., 0., 0., 0., 0., 0., 0., 0., 0., 0.,
          0., 0., 0., 79., 244., 255., 254., 254., 255., 203., 38., 0.,
          0., 0., 1., 1., 0., 0., 0., 0., 0., 0., 0., 0., 0., 0., 0., 0.,
          0., 0., 0., 0., 0., 0., 0., 0., 0., 0., 0., 0., 79., 245.,
          254., 253., 252., 254., 204., 41., 2., 0., 0., 0., 0., 2., 2.,
          0., 0., 0., 0., 0., 0., 0., 0., 0., 0., 0., 0., 0., 0., 0., 0.,
          0., 0., 0., 0., 0., 0., 79., 244., 255., 255., 255., 254.,
          202., 39., 1., 0., 1., 1., 1., 1., 0., 0., 0., 0., 0., 0., 0.,
          0., 0., 0., 0., 0., 0., 0., 0., 0., 0., 0., 0., 0., 0., 0., 0.,
          79., 244., 255., 255., 255., 254., 203., 38., 0., 0., 0., 1.,
          1., 0., 0., 0., 0., 0., 0., 0., 0., 0., 0., 0., 0., 0., 0., 0.,
          0., 0., 0., 0., 0., 0., 0., 0., 0., 69., 212., 220., 220.,
          221., 98., 0., 1., 2., 1., 0., 0., 0., 0., 0., 0., 0., 0., 0.,
          0., 0., 0., 0., 0., 0., 0., 0., 0., 0., 0., 0., 0., 0., 0., 0.,
          0., 0., 0., 0., 0., 0., 0., 0., 0., 0., 0., 0., 0., 0., 0., 0.,
          0., 0., 0., 0., 0., 0., 0., 0., 0., 0., 0., 0., 0., 0., 0., 0.,
          0., 0., 0., 0., 0., 0., 0., 0., 0., 0., 0., 0., 0., 0., 0., 0.,
          0., 0., 0., 0., 0., 0., 0., 0., 0., 0., 0., 0., 0., 0., 0., 0.,
          0., 0., 0., 0., 1., 2., 1., 0., 1., 1., 1., 1., 0., 0., 0., 0.,
          1., 1., 0., 1., 1., 0., 0., 0., 0., 0., 0., 1., 2., 0., 0., 0.,
          1., 1., 1., 1., 0., 0., 0., 0., 1., 1., 0., 0., 0., 0., 0., 1.,
          2., 0., 1., 46., 160., 162., 162., 162., 162., 162., 161.,
          162., 64., 0., 1., 0., 1., 2., 1., 1., 1., 0., 2., 2., 0., 0.,
          0., 0., 0., 0., 0., 1., 1., 1., 1., 11., 15., 57., 226., 255.,
          254., 253., 252., 253., 255., 254., 254., 254., 251., 253.,
          255., 255., 253., 152., 13., 6., 2., 0., 1., 0., 1., 3., 1.,
          0., 0., 0., 1., 2., 0., 1., 1., 18., 196., 254., 254., 255.,
          255., 254., 254., 254., 255., 255., 253., 254., 255., 255.,
          254., 253., 254., 254., 254., 239., 146., 59., 1., 1., 1., 0.,
          0., 0., 0., 0., 0., 2., 3., 2., 1., 84., 232., 249., 254.,
          253., 255., 255., 255., 255., 255., 255., 255., 255., 255.,
          254., 253., 254., 255., 255., 255., 254., 253., 254., 121., 0.,
          0., 1., 1., 1., 0., 0., 0., 1., 0., 0., 0., 2., 95., 255.,
          253., 253., 255., 254., 255., 231., 172., 54., 1., 0., 1., 1.,
          1., 1., 154., 254., 254., 254., 254., 255., 254., 254., 196.,
          17., 0., 0., 1., 0., 0., 0., 1., 0., 0., 1., 2., 93., 252.,
          253., 254., 254., 253., 254., 182., 3., 1., 0., 0., 1., 1., 0.,
          0., 155., 255., 255., 254., 255., 255., 254., 254., 197., 18.,
          0., 0., 0., 0., 0., 0., 0., 0., 0., 1., 0., 93., 255., 255.,
          254., 253., 254., 254., 254., 255., 79., 0., 0., 1., 1., 10.,
          41., 170., 252., 254., 254., 255., 255., 255., 255., 196., 17.,
          0., 1., 2., 0., 0., 0., 0., 0., 0., 0., 1., 38., 113., 219.,
          255., 255., 254., 254., 254., 255., 185., 152., 152., 152.,
          151., 172., 245., 254., 254., 255., 254., 254., 255., 253.,
          174., 80., 7., 1., 1., 1., 0., 0., 0., 1., 1., 1., 0., 1., 2.,
          20., 193., 251., 252., 254., 255., 254., 253., 253., 253.,
          254., 255., 254., 253., 255., 255., 255., 255., 255., 255.,
          224., 45., 0., 0., 1., 0., 0., 0., 0., 0., 0., 1., 1., 0., 1.,
          1., 0., 0., 0., 120., 254., 255., 254., 254., 254., 255., 255.,
          255., 253., 254., 255., 255., 255., 254., 254., 255., 207.,
          124., 27., 2., 1., 0., 1., 1., 1., 0., 0., 0., 2., 1., 0., 0.,
          0., 0., 0., 0., 120., 254., 253., 254., 255., 255., 255., 255.,
          255., 254., 254., 254., 255., 255., 255., 255., 255., 148., 0.,
          1., 2., 1., 0., 1., 1., 1., 0., 0., 0., 0., 0., 1., 1., 0., 0.,
          5., 58., 158., 252., 254., 255., 255., 254., 253., 254., 254.,
          254., 255., 255., 253., 254., 255., 254., 254., 254., 233.,
          105., 35., 0., 1., 0., 0., 0., 0., 0., 0., 0., 1., 1., 1., 0.,
          66., 187., 238., 254., 254., 254., 254., 254., 255., 255.,
          254., 252., 253., 254., 255., 255., 255., 255., 254., 253.,
          253., 255., 254., 215., 139., 13., 1., 1., 0., 0., 0., 0., 1.,
          0., 9., 33., 180., 255., 255., 255., 254., 254., 255., 255.,
          245., 221., 69., 1., 2., 2., 2., 45., 200., 220., 230., 254.,
          255., 255., 254., 252., 253., 255., 255., 93., 0., 1., 0., 0.,
          0., 0., 1., 67., 244., 255., 254., 254., 254., 254., 253.,
          254., 172., 81., 2., 1., 1., 0., 2., 2., 1., 0., 1., 36., 114.,
          214., 254., 253., 255., 255., 255., 254., 93., 1., 2., 0., 0.,
          0., 1., 0., 65., 245., 255., 255., 254., 255., 255., 255.,
          254., 106., 0., 1., 0., 0., 1., 0., 1., 2., 1., 0., 0., 3.,
          182., 255., 255., 254., 254., 255., 254., 93., 1., 0., 0., 0.,
          0., 1., 0., 65., 245., 255., 254., 253., 253., 254., 255.,
          254., 107., 1., 2., 1., 1., 0., 1., 1., 1., 3., 1., 0., 3.,
          183., 255., 254., 254., 254., 255., 255., 254., 169., 1., 0.,
          0., 0., 0., 0., 66., 245., 255., 255., 255., 253., 254., 255.,
          255., 107., 1., 2., 2., 1., 0., 0., 0., 0., 1., 1., 1., 3.,
          182., 254., 254., 255., 254., 254., 255., 253., 168., 3., 1.,
          0., 0., 0., 1., 49., 182., 232., 254., 254., 255., 255., 254.,
          254., 143., 46., 2., 1., 0., 0., 2., 3., 2., 0., 0., 20., 69.,
          199., 253., 254., 254., 254., 254., 255., 93., 0., 0., 0., 0.,
          0., 2., 2., 1., 0., 168., 254., 253., 253., 253., 254., 255.,
          255., 231., 172., 171., 104., 2., 1., 0., 35., 155., 172.,
          197., 253., 254., 254., 254., 253., 253., 253., 254., 93., 0.,
          1., 0., 0., 0., 0., 0., 0., 0., 1., 85., 232., 249., 255.,
          254., 252., 254., 255., 254., 254., 254., 253., 255., 255.,
          254., 255., 254., 253., 254., 255., 255., 255., 255., 255.,
          197., 20., 2., 1., 0., 0., 0., 0., 1., 0., 0., 0., 0., 0., 9.,
          95., 184., 253., 255., 255., 255., 255., 254., 254., 255.,
          255., 255., 255., 254., 254., 255., 255., 254., 253., 238.,
          146., 123., 94., 8., 1., 1., 0., 0., 0., 0., 0., 1., 1., 0.,
          0., 2., 6., 2., 7., 15., 15., 154., 255., 255., 255., 255.,
          255., 255., 255., 255., 255., 255., 255., 251., 84., 16., 13.,
          4., 1., 0., 1., 0., 1., 2., 0., 0., 0., 0., 0., 0., 1., 0., 0.,
          0., 0., 0., 1., 1., 1., 0., 0., 0., 0., 0., 0., 0., 0., 0., 0.,
          0., 1., 0., 1., 1., 0., 0., 1., 1., 2., 1., 0., 0., 0., 0., 1.,
          0., 0., 0., 1., 1., 0., 2., 2., 2., 2., 1., 0., 0., 0., 0., 0.,
          0., 0., 0., 0., 0., 0., 0., 0., 0., 1., 0., 1., 1., 0., 1., 1.,
          1., 0., 0., 0., 2., 1., 0., 1., 1., 0., 0., 0., 1., 0., 0., 1.,
          2., 1., 0., 0., 0., 0., 0., 0., 0., 1., 0., 0., 1., 0., 0., 1.,
          1., 1., 1., 1., 0., 0., 1., 0., 0., 0., 1., 1., 1., 0., 0., 1.,
          1., 1., 0., 0., 0., 0., 1., 1., 1., 96., 147., 147., 147., 95.,
          0., 0., 0., 1., 0., 1., 2., 0., 0., 1., 1., 0., 0., 1., 0., 0.,
          2., 1., 0., 0., 0., 0., 1., 0., 0., 1., 1., 67., 232., 245.,
          245., 245., 251., 254., 252., 252., 250., 245., 245., 244.,
          229., 67., 2., 1., 0., 1., 2., 1., 1., 0., 1., 0., 0., 1., 0.,
          1., 3., 2., 0., 1., 51., 129., 239., 254., 255., 255., 254.,
          254., 255., 253., 252., 253., 254., 254., 254., 254., 254.,
          253., 252., 185., 80., 22., 1., 0., 0., 1., 1., 0., 0., 0., 1.,
          1., 1., 1., 1., 40., 164., 224., 255., 255., 255., 255., 255.,
          254., 199., 74., 68., 69., 70., 69., 69., 74., 199., 254.,
          254., 254., 254., 248., 203., 106., 0., 0., 1., 1., 0., 0., 0.,
          2., 1., 0., 0., 16., 79., 231., 255., 255., 255., 237., 164.,
          12., 0., 0., 1., 1., 1., 0., 1., 1., 0., 0., 85., 227., 247.,
          255., 255., 254., 254., 228., 57., 1., 0., 0., 0., 0., 0., 1.,
          1., 1., 137., 253., 255., 255., 255., 253., 103., 1., 0., 0.,
          0., 0., 0., 0., 0., 0., 0., 0., 0., 0., 15., 186., 255., 254.,
          255., 255., 227., 55., 0., 0., 0., 0., 0., 1., 0., 1., 3.,
          138., 253., 252., 254., 255., 254., 103., 1., 0., 0., 0., 0.,
          0., 0., 0., 0., 0., 0., 0., 0., 2., 23., 121., 252., 254.,
          255., 251., 230., 122., 3., 1., 0., 0., 1., 1., 48., 220.,
          254., 254., 254., 254., 255., 255., 103., 0., 0., 0., 0., 0.,
          0., 0., 0., 0., 0., 0., 0., 0., 1., 0., 103., 254., 254., 253.,
          252., 254., 138., 0., 0., 0., 0., 0., 0., 48., 219., 253.,
          253., 255., 255., 254., 253., 103., 1., 0., 0., 0., 0., 0., 0.,
          0., 0., 0., 0., 0., 0., 1., 0., 103., 254., 253., 253., 255.,
          254., 137., 1., 0., 0., 0., 0., 0., 1., 0., 138., 255., 255.,
          254., 254., 255., 103., 0., 0., 0., 0., 0., 0., 0., 0., 0., 0.,
          0., 0., 0., 1., 7., 109., 255., 255., 254., 253., 254., 138.,
          0., 2., 1., 0., 0., 1., 1., 0., 137., 254., 254., 255., 255.,
          254., 167., 79., 7., 0., 0., 1., 0., 0., 0., 1., 1., 0., 0.,
          0., 14., 186., 254., 254., 254., 254., 243., 170., 80., 1., 0.,
          0., 0., 1., 1., 1., 0., 27., 94., 232., 253., 253., 254., 255.,
          186., 14., 2., 2., 0., 3., 3., 0., 0., 0., 0., 1., 79., 208.,
          241., 254., 254., 254., 254., 227., 56., 1., 0., 0., 0., 0.,
          0., 0., 1., 2., 1., 45., 184., 234., 254., 253., 253., 254.,
          255., 254., 254., 255., 121., 49., 50., 188., 254., 255., 255.,
          255., 255., 253., 253., 255., 255., 254., 227., 55., 1., 1.,
          2., 1., 0., 2., 1., 0., 0., 1., 1., 2., 62., 143., 241., 254.,
          255., 254., 254., 254., 254., 254., 254., 254., 254., 255.,
          255., 255., 255., 255., 254., 254., 254., 254., 190., 95., 24.,
          1., 1., 1., 0., 0., 0., 1., 2., 0., 1., 1., 0., 2., 4., 9.,
          10., 77., 241., 255., 255., 255., 252., 252., 255., 255., 255.,
          254., 255., 255., 254., 255., 254., 252., 254., 145., 1., 2.,
          2., 0., 0., 0., 0., 0., 2., 3., 1., 1., 1., 1., 1., 1., 0., 0.,
          0., 0., 0., 0., 0., 0., 0., 0., 172., 254., 253., 254., 254.,
          255., 254., 254., 234., 63., 1., 1., 0., 0., 0., 1., 1., 0.,
          1., 0., 0., 1., 0., 0., 0., 0., 1., 2., 1., 0., 0., 0., 1., 1.,
          1., 0., 0., 172., 254., 254., 255., 255., 255., 255., 180.,
          64., 17., 0., 1., 2., 1., 0., 0., 0., 0., 0., 2., 4., 1., 1.,
          2., 0., 0., 0., 2., 1., 0., 0., 0., 0., 0., 0., 83., 255.,
          253., 254., 255., 254., 243., 213., 61., 0., 0., 0., 0., 1.,
          0., 0., 1., 3., 1., 0., 2., 1., 0., 0., 0., 0., 1., 1., 1., 1.,
          1., 1., 2., 2., 2., 0., 83., 169., 254., 254., 254., 254.,
          254., 158., 0., 1., 1., 1., 0., 1., 3., 1., 1., 1., 1., 1., 0.,
          0., 0., 0., 0., 0., 1., 0., 1., 2., 1., 1., 1., 1., 1., 67.,
          220., 244., 253., 252., 254., 255., 249., 97., 19., 1., 0., 0.,
          0., 0., 1., 2., 1., 0., 0., 0., 0., 0., 0., 1., 2., 0., 0., 1.,
          3., 1., 0., 0., 0., 19., 66., 185., 255., 254., 254., 254.,
          253., 208., 121., 0., 0., 0., 0., 0., 0., 1., 1., 0., 0., 0.,
          0., 1., 1., 1., 0., 1., 1., 1., 0., 1., 1., 0., 0., 0., 1.,
          100., 191., 249., 254., 254., 254., 254., 201., 90., 29., 0.,
          0., 0., 0., 0., 0., 0., 1., 0., 0., 1., 0., 0., 0., 0., 0., 0.,
          1., 0., 0., 0., 1., 2., 0., 0., 0., 1., 146., 245., 245., 245.,
          244., 245., 86., 0., 0., 0., 1., 3., 1., 0., 0., 0., 0., 0.,
          0., 0., 0., 0., 0., 0., 0., 0., 0., 0., 1., 2., 1., 0., 0., 2.,
          1., 0., 1., 1., 1., 1., 1., 0., 0., 0., 0., 1., 0., 1., 2., 1.,
          1., 0., 0., 0., 0., 0., 0., 0., 0., 0., 0., 0., 0., 0., 0., 0.,
          0., 0., 0., 1., 1., 1., 1., 1., 1., 1., 0., 1., 1., 1., 0., 1.,
          2., 1., 0., 1., 2., 2., 0., 0., 0., 0., 0., 0., 0., 0., 0., 0.,
          0., 0., 0., 1., 1., 0., 1., 2., 1., 1., 0., 0., 0., 0., 0., 0.,
          0., 0., 1., 1., 0., 1., 2., 1., 0., 2., 3., 1., 0., 0., 0., 1.,
          1., 0., 0., 0., 0., 0., 0., 0., 0., 0., 1., 1., 0., 0., 0., 0.,
          0., 2., 3., 1., 0., 1., 1., 0., 0., 0., 0., 0., 0., 0., 1., 1.,
          1., 2., 3., 2., 0., 0., 0., 0., 0., 0., 0., 0., 0., 0., 0., 2.,
          62., 144., 155., 156., 156., 157., 158., 158., 157., 116., 32.,
          0., 1., 1., 1., 0., 0., 1., 20., 104., 157., 157., 157., 157.,
          157., 157., 87., 2., 0., 0., 0., 0., 0., 0., 0., 0., 1., 54.,
          126., 191., 254., 254., 254., 253., 253., 254., 189., 51., 0.,
          0., 1., 1., 0., 5., 69., 135., 209., 255., 254., 254., 254.,
          254., 254., 141., 3., 0., 0., 0., 0., 0., 0., 0., 0., 0., 0.,
          0., 120., 254., 254., 253., 253., 253., 254., 209., 114., 52.,
          10., 0., 0., 0., 11., 148., 255., 255., 254., 254., 254., 254.,
          226., 183., 97., 2., 0., 0., 0., 0., 0., 0., 0., 1., 1., 1.,
          0., 101., 215., 237., 255., 255., 255., 254., 254., 255., 182.,
          67., 40., 40., 39., 48., 164., 255., 255., 254., 252., 252.,
          254., 162., 24., 0., 0., 0., 0., 0., 0., 0., 0., 3., 2., 0.,
          0., 0., 0., 3., 141., 255., 254., 253., 252., 252., 253., 254.,
          254., 254., 254., 255., 255., 255., 255., 254., 254., 255.,
          254., 253., 161., 24., 0., 0., 0., 0., 0., 0., 0., 0., 0., 0.,
          0., 0., 0., 1., 2., 22., 59., 176., 255., 254., 254., 255.,
          255., 255., 253., 251., 253., 255., 254., 254., 252., 252.,
          254., 194., 77., 26., 6., 1., 0., 0., 0., 0., 0., 0., 0., 0.,
          0., 1., 0., 0., 1., 1., 1., 24., 162., 255., 255., 255., 254.,
          254., 254., 254., 253., 254., 255., 254., 253., 254., 218.,
          123., 56., 14., 1., 1., 1., 0., 0., 0., 0., 0., 0., 0., 1., 0.,
          0., 0., 0., 1., 2., 1., 11., 75., 142., 216., 255., 255., 254.,
          254., 254., 254., 255., 255., 254., 254., 255., 203., 66., 1.,
          0., 0., 0., 0., 0., 0., 0., 0., 0., 0., 0., 1., 0., 0., 1., 1.,
          2., 2., 1., 0., 0., 45., 183., 255., 254., 254., 254., 254.,
          254., 255., 255., 255., 254., 254., 203., 66., 1., 0., 0., 1.,
          0., 0., 0., 0., 0., 0., 0., 0., 0., 0., 0., 1., 3., 2., 0., 0.,
          1., 0., 45., 182., 254., 254., 254., 254., 254., 255., 255.,
          255., 254., 254., 254., 203., 66., 1., 0., 0., 0., 0., 0., 0.,
          0., 0., 0., 0., 0., 0., 0., 0., 1., 2., 1., 0., 0., 0., 0.,
          45., 182., 254., 255., 255., 255., 254., 254., 254., 255.,
          254., 254., 255., 204., 68., 3., 1., 0., 1., 1., 0., 0., 0.,
          0., 0., 0., 0., 1., 1., 1., 1., 0., 0., 1., 0., 0., 1., 46.,
          183., 255., 255., 255., 255., 255., 255., 255., 255., 255.,
          255., 254., 202., 65., 0., 0., 0., 0., 0., 0., 0., 0., 0., 0.,
          0., 0., 0., 0., 0., 0., 0., 0., 0., 1., 20., 125., 205., 235.,
          252., 254., 254., 253., 254., 255., 254., 254., 254., 254.,
          254., 203., 65., 0., 0., 1., 1., 1., 0., 0., 0., 0., 0., 0.,
          0., 0., 0., 1., 1., 2., 2., 2., 1., 25., 162., 254., 253.,
          253., 253., 253., 254., 254., 255., 254., 254., 254., 254.,
          254., 234., 182., 112., 28., 0., 1., 0., 0., 0., 0., 0., 0.,
          0., 0., 1., 1., 1., 1., 2., 2., 3., 65., 130., 204., 255.,
          255., 254., 254., 254., 255., 255., 254., 254., 254., 255.,
          255., 254., 253., 252., 214., 141., 75., 11., 0., 0., 0., 0.,
          0., 0., 0., 0., 2., 2., 2., 1., 0., 37., 80., 176., 254., 255.,
          255., 255., 255., 255., 229., 186., 176., 175., 176., 180.,
          222., 255., 254., 253., 252., 252., 254., 190., 95., 43., 1.,
          0., 0., 0., 0., 0., 0., 0., 1., 4., 18., 37., 141., 254., 254.,
          255., 255., 255., 255., 245., 224., 143., 27., 0., 0., 0., 10.,
          148., 255., 255., 255., 255., 254., 253., 254., 255., 141., 3.,
          0., 0., 0., 0., 0., 0., 0., 1., 3., 102., 238., 255., 254.,
          255., 255., 255., 255., 255., 190., 52., 0., 0., 0., 1., 1.,
          10., 148., 255., 255., 255., 254., 254., 255., 255., 254.,
          141., 3., 1., 2., 1., 0., 0., 0., 3., 2., 1., 99., 236., 254.,
          255., 255., 255., 253., 253., 254., 190., 53., 1., 0., 1., 2.,
          1., 2., 23., 65., 182., 255., 255., 255., 255., 255., 255.,
          237., 216., 103., 2., 1., 0., 1., 1., 1., 1., 0., 100., 237.,
          255., 255., 254., 254., 254., 223., 129., 59., 16., 0., 1., 1.,
          1., 1., 1., 1., 10., 52., 114., 209., 255., 255., 255., 255.,
          176., 81., 38., 1., 0., 0., 0., 1., 1., 0., 0., 46., 110.,
          118., 118., 117., 117., 117., 97., 34., 1., 2., 1., 1., 0., 1.,
          1., 1., 0., 1., 1., 25., 88., 118., 118., 118., 118., 66., 3.,
          0., 0., 1., 2., 1., 1., 1., 0., 0., 0., 0., 0., 1., 1., 1., 1.,
          1., 1., 1., 2., 2., 1., 0., 1., 1., 2., 1., 0., 2., 2., 1., 1.,
          0., 0., 1., 1., 1., 0., 0., 1., 2., 1., 1., 0., 0., 0., 0., 0.,
          0., 0., 1., 2., 1., 1., 2., 2., 1., 1., 1., 0., 0., 1., 2., 1.,
          1., 0., 0., 2., 2., 1., 1., 1., 1., 1., 1., 1., 0., 0., 0., 0.,
          0., 1., 2., 1., 1., 0., 0., 0., 0., 1., 1., 0., 0., 1., 2., 1.,
          1., 0., 0., 0., 2., 3., 2., 1., 0., 1., 4., 3., 0., 0., 0., 1.,
          3., 1., 0., 0., 0. ]
   responses: !!opencv-matrix
      rows: 1
      cols: 11
      dt: f
      data: [ 0., 1., 2., 3., 4., 5., 6., 7., 8., 9., 10. ]
